{"learner":{"attributes":{"scikit_learn":"{\"_estimator_type\": \"regressor\"}"},"feature_names":["lag_1","lag_7","lag_14","roll_7","roll_14","roll_28","Weekday_num","Month","is_weekend","fourier_sin_1","fourier_cos_1","fourier_sin_2","fourier_cos_2"],"feature_types":["float","float","float","float","float","float","int","int","int","float","float","float","float"],"gradient_booster":{"model":{"gbtree_model_param":{"num_parallel_tree":"1","num_trees":"400"},"iteration_indptr":[0,1,2,3,4,5,6,7,8,9,10,11,12,13,14,15,16,17,18,19,20,21,22,23,24,25,26,27,28,29,30,31,32,33,34,35,36,37,38,39,40,41,42,43,44,45,46,47,48,49,50,51,52,53,54,55,56,57,58,59,60,61,62,63,64,65,66,67,68,69,70,71,72,73,74,75,76,77,78,79,80,81,82,83,84,85,86,87,88,89,90,91,92,93,94,95,96,97,98,99,100,101,102,103,104,105,106,107,108,109,110,111,112,113,114,115,116,117,118,119,120,121,122,123,124,125,126,127,128,129,130,131,132,133,134,135,136,137,138,139,140,141,142,143,144,145,146,147,148,149,150,151,152,153,154,155,156,157,158,159,160,161,162,163,164,165,166,167,168,169,170,171,172,173,174,175,176,177,178,179,180,181,182,183,184,185,186,187,188,189,190,191,192,193,194,195,196,197,198,199,200,201,202,203,204,205,206,207,208,209,210,211,212,213,214,215,216,217,218,219,220,221,222,223,224,225,226,227,228,229,230,231,232,233,234,235,236,237,238,239,240,241,242,243,244,245,246,247,248,249,250,251,252,253,254,255,256,257,258,259,260,261,262,263,264,265,266,267,268,269,270,271,272,273,274,275,276,277,278,279,280,281,282,283,284,285,286,287,288,289,290,291,292,293,294,295,296,297,298,299,300,301,302,303,304,305,306,307,308,309,310,311,312,313,314,315,316,317,318,319,320,321,322,323,324,325,326,327,328,329,330,331,332,333,334,335,336,337,338,339,340,341,342,343,344,345,346,347,348,349,350,351,352,353,354,355,356,357,358,359,360,361,362,363,364,365,366,367,368,369,370,371,372,373,374,375,376,377,378,379,380,381,382,383,384,385,386,387,388,389,390,391,392,393,394,395,396,397,398,399,400],"tree_info":[0,0,0,0,0,0,0,0,0,0,0,0,0,0,0,0,0,0,0,0,0,0,0,0,0,0,0,0,0,0,0,0,0,0,0,0,0,0,0,0,0,0,0,0,0,0,0,0,0,0,0,0,0,0,0,0,0,0,0,0,0,0,0,0,0,0,0,0,0,0,0,0,0,0,0,0,0,0,0,0,0,0,0,0,0,0,0,0,0,0,0,0,0,0,0,0,0,0,0,0,0,0,0,0,0,0,0,0,0,0,0,0,0,0,0,0,0,0,0,0,0,0,0,0,0,0,0,0,0,0,0,0,0,0,0,0,0,0,0,0,0,0,0,0,0,0,0,0,0,0,0,0,0,0,0,0,0,0,0,0,0,0,0,0,0,0,0,0,0,0,0,0,0,0,0,0,0,0,0,0,0,0,0,0,0,0,0,0,0,0,0,0,0,0,0,0,0,0,0,0,0,0,0,0,0,0,0,0,0,0,0,0,0,0,0,0,0,0,0,0,0,0,0,0,0,0,0,0,0,0,0,0,0,0,0,0,0,0,0,0,0,0,0,0,0,0,0,0,0,0,0,0,0,0,0,0,0,0,0,0,0,0,0,0,0,0,0,0,0,0,0,0,0,0,0,0,0,0,0,0,0,0,0,0,0,0,0,0,0,0,0,0,0,0,0,0,0,0,0,0,0,0,0,0,0,0,0,0,0,0,0,0,0,0,0,0,0,0,0,0,0,0,0,0,0,0,0,0,0,0,0,0,0,0,0,0,0,0,0,0,0,0,0,0,0,0,0,0,0,0,0,0,0,0,0,0,0,0,0,0,0,0,0,0,0,0,0,0,0,0,0,0,0,0,0,0,0,0,0,0,0,0,0,0,0,0,0,0,0,0,0,0,0,0,0,0,0,0,0,0],"trees":[{"base_weights":[-9.1334635E-1,-9.983349E0,5.018892E0,-1.5714764E1,-6.945266E0,3.359315E0,1.6891626E1,3.5919037E0,-1.7930754E1,1.522379E0,-9.953491E0,4.230536E0,-9.671335E0,2.1147045E1,5.336042E-1,1.6637856E-1,-3.7943113E-3,-6.147374E-1,-8.655361E-2,-1.7965719E-1,1.638553E-1,-5.055197E-1,-1.9845107E-1,7.8935586E-2,3.2449335E-1,2.3620568E-1,-5.103036E-1,4.6378553E-2,6.664755E-1,2.3387855E-1,-1.3724288E-1],"categories":[],"categories_nodes":[],"categories_segments":[],"categories_sizes":[],"default_left":[0,0,0,0,0,0,0,0,0,0,0,0,0,0,0,0,0,0,0,0,0,0,0,0,0,0,0,0,0,0,0],"id":0,"left_children":[1,3,5,7,9,11,13,15,17,19,21,23,25,27,29,-1,-1,-1,-1,-1,-1,-1,-1,-1,-1,-1,-1,-1,-1,-1,-1],"loss_changes":[1.4301141E4,1.5008857E3,3.002066E3,1.6478516E3,1.9304299E3,1.7688689E3,1.2887417E3,4.569967E1,1.0168926E3,7.4908673E2,9.320205E2,1.3681978E3,1.6893684E3,2.1121191E2,3.666851E2,0E0,0E0,0E0,0E0,0E0,0E0,0E0,0E0,0E0,0E0,0E0,0E0,0E0,0E0,0E0,0E0],"parents":[2147483647,0,0,1,1,2,2,3,3,4,4,5,5,6,6,7,7,8,8,9,9,10,10,11,11,12,12,13,13,14,14],"right_children":[2,4,6,8,10,12,14,16,18,20,22,24,26,28,30,-1,-1,-1,-1,-1,-1,-1,-1,-1,-1,-1,-1,-1,-1,-1,-1],"split_conditions":[4.05E2,3.98E2,4.2042856E2,3.85E2,3.9E2,4.192857E2,4.35E2,3.63E2,9.749279E-1,4.0057144E2,3.99E2,4.1557144E2,-2.2252093E-1,4.077143E2,4.01E2,1.6637856E-1,-3.7943113E-3,-6.147374E-1,-8.655361E-2,-1.7965719E-1,1.638553E-1,-5.055197E-1,-1.9845107E-1,7.8935586E-2,3.2449335E-1,2.3620568E-1,-5.103036E-1,4.6378553E-2,6.664755E-1,2.3387855E-1,-1.3724288E-1],"split_indices":[3,3,3,2,0,3,0,0,9,3,0,3,10,4,1,0,0,0,0,0,0,0,0,0,0,0,0,0,0,0,0],"split_type":[0,0,0,0,0,0,0,0,0,0,0,0,0,0,0,0,0,0,0,0,0,0,0,0,0,0,0,0,0,0,0],"sum_hessian":[2.6E2,1.02E2,1.58E2,3.1E1,7.1E1,1.42E2,1.6E1,3E0,2.8E1,1.9E1,5.2E1,1.35E2,7E0,1.2E1,4E0,1E0,2E0,2.3E1,5E0,6E0,1.3E1,1.3E1,3.9E1,1.12E2,2.3E1,2E0,5E0,1E0,1.1E1,1E0,3E0],"tree_param":{"num_deleted":"0","num_feature":"13","num_nodes":"31","size_leaf_vector":"1"}},{"base_weights":[5.5444205E-1,-7.597942E0,5.9611015E0,-8.865309E0,-5.9506065E-1,2.5975199E0,1.3524384E1,-1.2669386E1,-4.0888543E0,4.3000054E0,-8.938278E0,1.2473401E1,1.5729874E0,1.8486797E1,3.2923841E0,-4.466881E-2,-4.5599493E-1,-2.7936548E-1,6.500677E-2,-1.4769946E-1,2.1204162E-1,5.2649688E-2,-3.365408E-1,4.587638E-1,-9.671356E-2,1.1797447E-2,3.431969E-1,5.900401E-1,1.6311768E-2,-1.4418365E-1,3.6068627E-1],"categories":[],"categories_nodes":[],"categories_segments":[],"categories_sizes":[],"default_left":[0,0,0,0,0,0,0,0,0,0,0,0,0,0,0,0,0,0,0,0,0,0,0,0,0,0,0,0,0,0,0],"id":1,"left_children":[1,3,5,7,9,11,13,15,17,19,21,23,25,27,29,-1,-1,-1,-1,-1,-1,-1,-1,-1,-1,-1,-1,-1,-1,-1,-1],"loss_changes":[1.1375553E4,8.983213E2,3.837766E3,1.4253809E3,8.912753E2,1.0642542E3,2.2038477E3,1.2618032E3,1.4655956E3,4.6182327E2,2.5408624E2,5.9035657E2,1.1971035E3,6.2494727E2,1.5167251E3,0E0,0E0,0E0,0E0,0E0,0E0,0E0,0E0,0E0,0E0,0E0,0E0,0E0,0E0,0E0,0E0],"parents":[2147483647,0,0,1,1,2,2,3,3,4,4,5,5,6,6,7,7,8,8,9,9,10,10,11,11,12,12,13,13,14,14],"right_children":[2,4,6,8,10,12,14,16,18,20,22,24,26,28,30,-1,-1,-1,-1,-1,-1,-1,-1,-1,-1,-1,-1,-1,-1,-1,-1],"split_conditions":[4.05E2,4.3E2,4.1557144E2,4.007143E2,4.0786667E2,4.0557144E2,4.1181818E2,-7.818315E-1,-1.954483E-15,3.77E2,4.33E2,4.04E2,4.34E2,4.167143E2,4.2042856E2,-4.466881E-2,-4.5599493E-1,-2.7936548E-1,6.500677E-2,-1.4769946E-1,2.1204162E-1,5.2649688E-2,-3.365408E-1,4.587638E-1,-9.671356E-2,1.1797447E-2,3.431969E-1,5.900401E-1,1.6311768E-2,-1.4418365E-1,3.6068627E-1],"split_indices":[3,2,3,3,5,3,5,9,11,1,2,2,2,4,3,0,0,0,0,0,0,0,0,0,0,0,0,0,0,0,0],"split_type":[0,0,0,0,0,0,0,0,0,0,0,0,0,0,0,0,0,0,0,0,0,0,0,0,0,0,0,0,0,0,0],"sum_hessian":[2.52E2,1E2,1.52E2,8.4E1,1.6E1,1.08E2,4.4E1,4.4E1,4E1,1.1E1,5E0,7E0,1.01E2,2.8E1,1.6E1,9E0,3.5E1,2.1E1,1.9E1,2E0,9E0,1E0,4E0,6E0,1E0,9.3E1,8E0,2.6E1,2E0,9E0,7E0],"tree_param":{"num_deleted":"0","num_feature":"13","num_nodes":"31","size_leaf_vector":"1"}},{"base_weights":[-7.215337E-1,-9.108679E0,3.980377E0,-1.45851755E1,-4.82808E0,-4.1416168E-1,8.445378E0,1.028141E0,-1.7044296E1,-1.1319646E1,5.286893E-1,7.708544E0,-2.2271307E0,6.4341316E0,1.5873954E1,-1.06276974E-1,1.2968978E-1,-1.837901E-1,-5.9408647E-1,-4.2270225E-1,-5.093241E-2,2.4188077E-1,-1.1395859E-1,-2.556458E-1,3.55595E-1,4.7256434E-1,-1.20175205E-1,2.3791127E-1,-3.8976744E-1,-4.3295287E-3,5.5114824E-1],"categories":[],"categories_nodes":[],"categories_segments":[],"categories_sizes":[],"default_left":[0,0,0,0,0,0,0,0,0,0,0,0,0,0,0,0,0,0,0,0,0,0,0,0,0,0,0,0,0,0,0],"id":2,"left_children":[1,3,5,7,9,11,13,15,17,19,21,23,25,27,29,-1,-1,-1,-1,-1,-1,-1,-1,-1,-1,-1,-1,-1,-1,-1,-1],"loss_changes":[9.888799E3,1.8985869E3,3.1695747E3,1.5115835E3,1.9305139E3,1.2885057E3,8.888506E2,1.6642189E2,6.299414E2,5.946555E2,1.1677461E3,1.3793018E3,2.459875E3,2.2856296E3,6.0807495E2,0E0,0E0,0E0,0E0,0E0,0E0,0E0,0E0,0E0,0E0,0E0,0E0,0E0,0E0,0E0,0E0],"parents":[2147483647,0,0,1,1,2,2,3,3,4,4,5,5,6,6,7,7,8,8,9,9,10,10,11,11,12,12,13,13,14,14],"right_children":[2,4,6,8,10,12,14,16,18,20,22,24,26,28,30,-1,-1,-1,-1,-1,-1,-1,-1,-1,-1,-1,-1,-1,-1,-1,-1],"split_conditions":[4.0357144E2,3.98E2,4.1185715E2,3.85E2,4.0467856E2,4.0339285E2,4.2042856E2,3.99E2,-2.2252093E-1,4.032143E2,4E2,4.007857E2,3.8E2,4.2014285E2,4.077143E2,-1.06276974E-1,1.2968978E-1,-1.837901E-1,-5.9408647E-1,-4.2270225E-1,-5.093241E-2,2.4188077E-1,-1.1395859E-1,-2.556458E-1,3.55595E-1,4.7256434E-1,-1.20175205E-1,2.3791127E-1,-3.8976744E-1,-4.3295287E-3,5.5114824E-1],"split_indices":[3,3,3,2,5,5,3,1,12,4,3,5,1,3,4,0,0,0,0,0,0,0,0,0,0,0,0,0,0,0,0],"split_type":[0,0,0,0,0,0,0,0,0,0,0,0,0,0,0,0,0,0,0,0,0,0,0,0,0,0,0,0,0,0,0],"sum_hessian":[2.45E2,8.7E1,1.58E2,3.5E1,5.2E1,8.1E1,7.7E1,5E0,3E1,2.2E1,3E1,1.3E1,6.8E1,6.5E1,1.2E1,2E0,3E0,8E0,2.2E1,1.6E1,6E0,1E1,2E1,2E0,1.1E1,4E0,6.4E1,6.2E1,3E0,2E0,1E1],"tree_param":{"num_deleted":"0","num_feature":"13","num_nodes":"31","size_leaf_vector":"1"}},{"base_weights":[-5.722324E-1,-1.2632532E1,1.1950074E0,-4.598948E0,-1.6387358E1,-2.0258405E0,5.2485356E0,-1.0263602E1,6.273629E0,-2.199817E0,-1.747614E1,5.4927716E0,-3.3575366E0,1.2321535E1,3.6411242E0,-4.2630455E-1,3.9079282E-3,2.1406418E-1,8.269272E-3,-8.804283E-2,5.5496977E-3,-5.715675E-1,-1.2817276E-1,-8.311366E-2,4.624037E-1,-1.3810788E-1,2.215727E-1,4.9127722E-1,3.3378065E-2,-1.5014105E-1,1.5550542E-1],"categories":[],"categories_nodes":[],"categories_segments":[],"categories_sizes":[],"default_left":[0,0,0,0,0,0,0,0,0,0,0,0,0,0,0,0,0,0,0,0,0,0,0,0,0,0,0,0,0,0,0],"id":3,"left_children":[1,3,5,7,9,11,13,15,17,19,21,23,25,27,29,-1,-1,-1,-1,-1,-1,-1,-1,-1,-1,-1,-1,-1,-1,-1,-1],"loss_changes":[5.672037E3,7.9950586E2,3.073899E3,1.117011E3,2.245044E2,1.3769773E3,1.0478062E3,4.567721E2,3.028476E1,1.0392204E1,1.7201172E2,1.8496213E3,1.6280962E3,7.6335376E2,1.2646615E3,0E0,0E0,0E0,0E0,0E0,0E0,0E0,0E0,0E0,0E0,0E0,0E0,0E0,0E0,0E0,0E0],"parents":[2147483647,0,0,1,1,2,2,3,3,4,4,5,5,6,6,7,7,8,8,9,9,10,10,11,11,12,12,13,13,14,14],"right_children":[2,4,6,8,10,12,14,16,18,20,22,24,26,28,30,-1,-1,-1,-1,-1,-1,-1,-1,-1,-1,-1,-1,-1,-1,-1,-1],"split_conditions":[4.0042856E2,4E2,4.087857E2,-1.4695761E-15,4.012143E2,4.022143E2,4.0947058E2,3.91E2,3.9964285E2,4.09E2,9.749279E-1,4.0542856E2,4.1264285E2,4.22E2,1E0,-4.2630455E-1,3.9079282E-3,2.1406418E-1,8.269272E-3,-8.804283E-2,5.5496977E-3,-5.715675E-1,-1.2817276E-1,-8.311366E-2,4.624037E-1,-1.3810788E-1,2.215727E-1,4.9127722E-1,3.3378065E-2,-1.5014105E-1,1.5550542E-1],"split_indices":[4,2,5,11,5,4,5,2,4,2,9,5,4,2,6,0,0,0,0,0,0,0,0,0,0,0,0,0,0,0,0],"split_type":[0,0,0,0,0,0,0,0,0,0,0,0,0,0,0,0,0,0,0,0,0,0,0,0,0,0,0,0,0,0,0],"sum_hessian":[2.61E2,3.1E1,2.3E2,1.2E1,1.9E1,1.29E2,1.01E2,8E0,4E0,2E0,1.7E1,1.8E1,1.11E2,1.5E1,8.6E1,5E0,3E0,3E0,1E0,1E0,1E0,1.4E1,3E0,1.1E1,7E0,1.01E2,1E1,1E1,5E0,1.2E1,7.4E1],"tree_param":{"num_deleted":"0","num_feature":"13","num_nodes":"31","size_leaf_vector":"1"}},{"base_weights":[3.9936957E-1,-8.358461E0,6.355941E0,-1.3560689E1,-6.0225263E0,9.8069584E-1,9.141657E0,1.6597252E-1,-1.4711991E1,4.024918E-1,-8.701973E0,4.4379153E0,-4.615822E0,1.39011345E1,5.553142E0,7.815147E-2,-4.664919E-1,-3.2948396E-1,1.5673208E-1,6.372858E-2,-3.0938664E-1,2.1375383E-1,-2.4933162E-1,-2.9537663E-1,1.698011E-1,4.3325993E-1,-7.01699E-2,-6.069858E-2,2.7671084E-1],"categories":[],"categories_nodes":[],"categories_segments":[],"categories_sizes":[],"default_left":[0,0,0,0,0,0,0,0,0,0,0,0,0,0,0,0,0,0,0,0,0,0,0,0,0,0,0,0,0],"id":4,"left_children":[1,3,5,7,9,11,13,-1,15,17,19,21,23,25,27,-1,-1,-1,-1,-1,-1,-1,-1,-1,-1,-1,-1,-1,-1],"loss_changes":[1.4296538E4,1.1038706E3,2.4138506E3,9.476001E2,1.422178E3,1.2030088E3,1.595917E3,0E0,5.712456E2,1.6544048E3,1.0772534E3,1.4795011E3,1.4570265E3,4.8782227E2,1.8914253E3,0E0,0E0,0E0,0E0,0E0,0E0,0E0,0E0,0E0,0E0,0E0,0E0,0E0,0E0],"parents":[2147483647,0,0,1,1,2,2,3,3,4,4,5,5,6,6,8,8,9,9,10,10,11,11,12,12,13,13,14,14],"right_children":[2,4,6,8,10,12,14,-1,16,18,20,22,24,26,28,-1,-1,-1,-1,-1,-1,-1,-1,-1,-1,-1,-1,-1,-1],"split_conditions":[4.05E2,3.9742856E2,4.1E2,3.63E2,3.9E2,4.097857E2,4.04E2,1.6597252E-1,3.8E2,3.87E2,3.9885715E2,4.09E2,8E0,4.49E2,4.087857E2,7.815147E-2,-4.664919E-1,-3.2948396E-1,1.5673208E-1,6.372858E-2,-3.0938664E-1,2.1375383E-1,-2.4933162E-1,-2.9537663E-1,1.698011E-1,4.3325993E-1,-7.01699E-2,-6.069858E-2,2.7671084E-1],"split_indices":[3,3,3,0,0,4,1,0,1,1,3,3,7,0,5,0,0,0,0,0,0,0,0,0,0,0,0,0,0],"split_type":[0,0,0,0,0,0,0,0,0,0,0,0,0,0,0,0,0,0,0,0,0,0,0,0,0,0,0,0,0],"sum_hessian":[2.68E2,1.08E2,1.6E2,2.9E1,7.9E1,5.6E1,1.04E2,1E0,2.8E1,2.4E1,5.5E1,3.5E1,2.1E1,4.1E1,6.3E1,1E0,2.7E1,6E0,1.8E1,7E0,4.8E1,3E1,5E0,1.4E1,7E0,4E1,1E0,2.1E1,4.2E1],"tree_param":{"num_deleted":"0","num_feature":"13","num_nodes":"29","size_leaf_vector":"1"}},{"base_weights":[1.1018403E0,-1.1335267E0,8.238551E0,-1.3243543E1,-6.03428E-2,-9.490875E-1,1.1551824E1,-2.8414001E0,-1.6867418E1,-1.7766926E0,3.7973778E0,-6.238202E0,4.353384E-1,1.2320973E1,7.293701E-3,5.941095E-2,-1.6316512E-1,-5.337825E-1,-5.016586E-2,9.6507445E-2,-1.2257938E-1,3.5368147E-1,5.201968E-2,1.1409794E-2,-4.756872E-1,3.9540568E-1,1.6078967E-1,-2.3733233E-1,2.9699364E-1],"categories":[],"categories_nodes":[],"categories_segments":[],"categories_sizes":[],"default_left":[0,0,0,0,0,0,0,0,0,0,0,0,0,0,0,0,0,0,0,0,0,0,0,0,0,0,0,0,0],"id":5,"left_children":[1,3,5,7,9,11,13,15,17,19,21,23,-1,25,27,-1,-1,-1,-1,-1,-1,-1,-1,-1,-1,-1,-1,-1,-1],"loss_changes":[4.351324E3,2.7138237E3,2.0115654E3,4.97052E2,1.3113739E3,1.9070062E3,4.2594482E2,1.3250652E2,7.9468506E1,1.619272E3,9.4459924E2,1.100265E3,0E0,5.7234375E1,7.0494867E2,0E0,0E0,0E0,0E0,0E0,0E0,0E0,0E0,0E0,0E0,0E0,0E0,0E0,0E0],"parents":[2147483647,0,0,1,1,2,2,3,3,4,4,5,5,6,6,7,7,8,8,9,9,10,10,11,11,13,13,14,14],"right_children":[2,4,6,8,10,12,14,16,18,20,22,24,-1,26,28,-1,-1,-1,-1,-1,-1,-1,-1,-1,-1,-1,-1,-1,-1],"split_conditions":[4.1192856E2,3.9814285E2,2E0,-2.2252093E-1,4.0917856E2,4.1439285E2,4.45E2,3.9685715E2,3.977857E2,4.045E2,4.095357E2,4.22E2,4.353384E-1,4.144643E2,4.48E2,5.941095E-2,-1.6316512E-1,-5.337825E-1,-5.016586E-2,9.6507445E-2,-1.2257938E-1,3.5368147E-1,5.201968E-2,1.1409794E-2,-4.756872E-1,3.9540568E-1,1.6078967E-1,-2.3733233E-1,2.9699364E-1],"split_indices":[4,4,6,12,5,5,0,4,4,5,5,0,0,5,0,0,0,0,0,0,0,0,0,0,0,0,0,0,0],"split_type":[0,0,0,0,0,0,0,0,0,0,0,0,0,0,0,0,0,0,0,0,0,0,0,0,0,0,0,0,0],"sum_hessian":[2.68E2,2.06E2,6.2E1,1.4E1,1.92E2,1.7E1,4.5E1,5E0,9E0,1.34E2,5.8E1,1.4E1,3E0,4.2E1,3E0,2E0,3E0,8E0,1E0,4.2E1,9.2E1,9E0,4.9E1,1E1,4E0,3.5E1,7E0,2E0,1E0],"tree_param":{"num_deleted":"0","num_feature":"13","num_nodes":"29","size_leaf_vector":"1"}},{"base_weights":[2.8291696E-1,-6.4913545E0,4.926379E0,-1.233646E1,-3.2983289E0,2.85685E0,1.752673E1,-2.6455765E0,-1.5272801E1,-1.7848921E0,-1.4736488E1,3.5824618E0,-1.0005661E1,-5.7836913E-2,1.9386868E1,-3.1521344E-1,1.0431925E-1,4.1298706E-2,-5.030985E-1,-1.2086035E-1,1.4983916E-1,-5.168689E-1,2.0331344E-2,5.295879E-2,3.095544E-1,1.8769683E-1,-4.5030653E-1,4.4048537E-2,-4.6217423E-2,6.248297E-1,-4.9104996E-2],"categories":[],"categories_nodes":[],"categories_segments":[],"categories_sizes":[],"default_left":[0,0,0,0,0,0,0,0,0,0,0,0,0,0,0,0,0,0,0,0,0,0,0,0,0,0,0,0,0,0,0],"id":6,"left_children":[1,3,5,7,9,11,13,15,17,19,21,23,25,27,29,-1,-1,-1,-1,-1,-1,-1,-1,-1,-1,-1,-1,-1,-1,-1,-1],"loss_changes":[8.1172363E3,1.8376055E3,3.8395356E3,9.031904E2,1.167478E3,1.3675151E3,6.9026855E2,6.872331E2,7.422783E2,1.0795573E3,3.42385E2,1.5366171E3,9.32819E2,1.810027E1,6.7779736E2,0E0,0E0,0E0,0E0,0E0,0E0,0E0,0E0,0E0,0E0,0E0,0E0,0E0,0E0,0E0,0E0],"parents":[2147483647,0,0,1,1,2,2,3,3,4,4,5,5,6,6,7,7,8,8,9,9,10,10,11,11,12,12,13,13,14,14],"right_children":[2,4,6,8,10,12,14,16,18,20,22,24,26,28,30,-1,-1,-1,-1,-1,-1,-1,-1,-1,-1,-1,-1,-1,-1,-1,-1],"split_conditions":[4.05E2,3.98E2,4.202857E2,-2.2252093E-1,4.0457144E2,4.192857E2,4.077143E2,5E0,3.7E2,4.0357144E2,7.818315E-1,4.1585715E2,4.14E2,4.1E2,4.207857E2,-3.1521344E-1,1.0431925E-1,4.1298706E-2,-5.030985E-1,-1.2086035E-1,1.4983916E-1,-5.168689E-1,2.0331344E-2,5.295879E-2,3.095544E-1,1.8769683E-1,-4.5030653E-1,4.4048537E-2,-4.6217423E-2,6.248297E-1,-4.9104996E-2],"split_indices":[3,3,3,12,3,3,4,7,2,3,11,3,1,1,4,0,0,0,0,0,0,0,0,0,0,0,0,0,0,0,0],"split_type":[0,0,0,0,0,0,0,0,0,0,0,0,0,0,0,0,0,0,0,0,0,0,0,0,0,0,0,0,0,0,0],"sum_hessian":[2.52E2,1.02E2,1.5E2,3.3E1,6.9E1,1.32E2,1.8E1,9E0,2.4E1,6.4E1,5E0,1.27E2,5E0,2E0,1.6E1,3E0,6E0,2E0,2.2E1,4.9E1,1.5E1,4E0,1E0,1.03E2,2.4E1,1E0,4E0,1E0,1E0,1.5E1,1E0],"tree_param":{"num_deleted":"0","num_feature":"13","num_nodes":"31","size_leaf_vector":"1"}},{"base_weights":[1.0391201E-1,-8.399228E0,5.5979433E0,-1.14689045E1,-4.2730575E0,2.3641057E0,1.1385779E1,-1.3559337E1,-1.8440835E0,1.138621E0,-8.309648E0,5.6093377E-1,9.418341E0,1.5660221E1,1.3925813E-1,-9.53181E-2,-4.916484E-1,2.068808E-1,-3.2955527E-1,-1.8927717E-1,2.3431502E-1,-3.135149E-1,8.6925656E-2,-7.9138145E-2,1.5439788E-1,3.776355E-1,-1.5982834E-1,5.3493965E-1,-7.6110074E-3,1.687453E-1,-2.8538212E-1],"categories":[],"categories_nodes":[],"categories_segments":[],"categories_sizes":[],"default_left":[0,0,0,0,0,0,0,0,0,0,0,0,0,0,0,0,0,0,0,0,0,0,0,0,0,0,0,0,0,0,0],"id":7,"left_children":[1,3,5,7,9,11,13,15,17,19,21,23,25,27,29,-1,-1,-1,-1,-1,-1,-1,-1,-1,-1,-1,-1,-1,-1,-1,-1],"loss_changes":[1.2614366E4,1.1955757E3,2.9888232E3,1.1120684E3,1.1206208E3,1.3706306E3,2.781668E3,1.2535645E3,1.3457804E3,1.3404246E3,7.86635E2,1.3609344E3,1.2294133E3,1.4647012E3,1.166513E3,0E0,0E0,0E0,0E0,0E0,0E0,0E0,0E0,0E0,0E0,0E0,0E0,0E0,0E0,0E0,0E0],"parents":[2147483647,0,0,1,1,2,2,3,3,4,4,5,5,6,6,7,7,8,8,9,9,10,10,11,11,12,12,13,13,14,14],"right_children":[2,4,6,8,10,12,14,16,18,20,22,24,26,28,30,-1,-1,-1,-1,-1,-1,-1,-1,-1,-1,-1,-1,-1,-1,-1,-1],"split_conditions":[4.05E2,4E0,4.1557144E2,4.0357144E2,6E0,4.27E2,4.24E2,-2.2252093E-1,4.067143E2,3.98E2,1.1E1,4.0925E2,4.35E2,4.39E2,4.1357144E2,-9.53181E-2,-4.916484E-1,2.068808E-1,-3.2955527E-1,-1.8927717E-1,2.3431502E-1,-3.135149E-1,8.6925656E-2,-7.9138145E-2,1.5439788E-1,3.776355E-1,-1.5982834E-1,5.3493965E-1,-7.6110074E-3,1.687453E-1,-2.8538212E-1],"split_indices":[3,6,3,3,7,2,2,12,4,3,7,5,0,0,5,0,0,0,0,0,0,0,0,0,0,0,0,0,0,0,0],"split_type":[0,0,0,0,0,0,0,0,0,0,0,0,0,0,0,0,0,0,0,0,0,0,0,0,0,0,0,0,0,0,0],"sum_hessian":[2.64E2,1.03E2,1.61E2,5.6E1,4.7E1,1.06E2,5.5E1,4.5E1,1.1E1,2.1E1,2.6E1,8.7E1,1.9E1,3.9E1,1.6E1,1.1E1,3.4E1,6E0,5E0,1E1,1.1E1,2.2E1,4E0,5.2E1,3.5E1,1.6E1,3E0,3.4E1,5E0,1.1E1,5E0],"tree_param":{"num_deleted":"0","num_feature":"13","num_nodes":"31","size_leaf_vector":"1"}},{"base_weights":[-6.761287E-1,-8.673004E0,3.3792708E0,-1.2965949E1,-5.448629E0,2.130233E0,1.39880085E1,-2.017697E0,-1.5399903E1,8.08456E0,-7.2509747E0,2.823566E0,-1.0520579E1,1.9220947E1,2.3480868E0,1.3349853E-1,-1.5910022E-1,-1.09268E-1,-5.593289E-1,3.2009917E-1,3.93988E-3,-2.5304073E-1,1.7532745E-1,-5.5778916E-3,1.6739604E-1,-3.8834897E-1,6.655884E-2,3.9706193E-2,6.1461055E-1,-1.4900519E-1,1.9700134E-1],"categories":[],"categories_nodes":[],"categories_segments":[],"categories_sizes":[],"default_left":[0,0,0,0,0,0,0,0,0,0,0,0,0,0,0,0,0,0,0,0,0,0,0,0,0,0,0,0,0,0,0],"id":8,"left_children":[1,3,5,7,9,11,13,15,17,19,21,23,25,27,29,-1,-1,-1,-1,-1,-1,-1,-1,-1,-1,-1,-1,-1,-1,-1,-1],"loss_changes":[8.584724E3,1.0200034E3,2.2427324E3,8.660947E2,1.541786E3,1.5012839E3,9.6100073E2,2.833027E2,9.0252295E2,1.6029523E2,9.3843604E2,1.2888499E3,3.64123E2,1.905664E2,3.7557773E2,0E0,0E0,0E0,0E0,0E0,0E0,0E0,0E0,0E0,0E0,0E0,0E0,0E0,0E0,0E0,0E0],"parents":[2147483647,0,0,1,1,2,2,3,3,4,4,5,5,6,6,7,7,8,8,9,9,10,10,11,11,12,12,13,13,14,14],"right_children":[2,4,6,8,10,12,14,16,18,20,22,24,26,28,30,-1,-1,-1,-1,-1,-1,-1,-1,-1,-1,-1,-1,-1,-1,-1,-1],"split_conditions":[4.0342856E2,3.98E2,4.2042856E2,3.95E2,3.99E2,4.43E2,4.35E2,3.9942856E2,-2.2252093E-1,-1.4695761E-15,4.36E2,4.1E2,4.35E2,4.077143E2,3.98E2,1.3349853E-1,-1.5910022E-1,-1.09268E-1,-5.593289E-1,3.2009917E-1,3.93988E-3,-2.5304073E-1,1.7532745E-1,-5.5778916E-3,1.6739604E-1,-3.8834897E-1,6.655884E-2,3.9706193E-2,6.1461055E-1,-1.4900519E-1,1.9700134E-1],"split_indices":[3,3,3,2,3,0,0,4,12,9,1,3,2,4,2,0,0,0,0,0,0,0,0,0,0,0,0,0,0,0,0],"split_type":[0,0,0,0,0,0,0,0,0,0,0,0,0,0,0,0,0,0,0,0,0,0,0,0,0,0,0,0,0,0,0],"sum_hessian":[2.59E2,8.6E1,1.73E2,3.3E1,5.3E1,1.58E2,1.5E1,7E0,2.6E1,5E0,4.8E1,1.52E2,6E0,9E0,6E0,2E0,5E0,7E0,1.9E1,3E0,2E0,4.5E1,3E0,7.4E1,7.8E1,5E0,1E0,1E0,8E0,2E0,4E0],"tree_param":{"num_deleted":"0","num_feature":"13","num_nodes":"31","size_leaf_vector":"1"}},{"base_weights":[1.6456358E-1,-6.9322505E0,4.8927255E0,-1.3494725E1,-3.5049722E0,3.2924187E0,1.576104E1,-6.454521E0,-1.8774721E1,3.2350173E0,-5.965059E0,3.8887E0,-3.7397337E-1,5.761922E-1,3.3905869E0,6.766821E-2,-3.8475525E-1,-6.143848E-1,-1.452391E-1,-2.3525691E-1,2.1010609E-1,1.7786233E-1,-2.4081473E-1,7.287567E-2,2.7973393E-1,-7.27034E-2,2.4999224E-1],"categories":[],"categories_nodes":[],"categories_segments":[],"categories_sizes":[],"default_left":[0,0,0,0,0,0,0,0,0,0,0,0,0,0,0,0,0,0,0,0,0,0,0,0,0,0,0],"id":9,"left_children":[1,3,5,7,9,11,13,15,17,19,21,23,-1,-1,25,-1,-1,-1,-1,-1,-1,-1,-1,-1,-1,-1,-1],"loss_changes":[9.060908E3,2.2871777E3,2.6619312E3,9.7465576E2,1.3014631E3,1.5078932E3,6.5705176E2,1.1965697E3,1.5387012E2,1.0831215E3,1.5162401E3,1.0586128E3,0E0,0E0,2.904706E2,0E0,0E0,0E0,0E0,0E0,0E0,0E0,0E0,0E0,0E0,0E0,0E0],"parents":[2147483647,0,0,1,1,2,2,3,3,4,4,5,5,6,6,7,7,8,8,9,9,10,10,11,11,14,14],"right_children":[2,4,6,8,10,12,14,16,18,20,22,24,-1,-1,26,-1,-1,-1,-1,-1,-1,-1,-1,-1,-1,-1,-1],"split_conditions":[4.05E2,3.98E2,4.2042856E2,-3.0378667E-14,3.9E2,4.2014285E2,4.34E2,3.9557144E2,9.749279E-1,3.87E2,3.9914285E2,4.1557144E2,-3.7397337E-1,5.761922E-1,4.42E2,6.766821E-2,-3.8475525E-1,-6.143848E-1,-1.452391E-1,-2.3525691E-1,2.1010609E-1,1.7786233E-1,-2.4081473E-1,7.287567E-2,2.7973393E-1,-7.27034E-2,2.4999224E-1],"split_indices":[3,3,3,9,0,3,0,3,9,1,3,3,0,0,0,0,0,0,0,0,0,0,0,0,0,0,0],"split_type":[0,0,0,0,0,0,0,0,0,0,0,0,0,0,0,0,0,0,0,0,0,0,0,0,0,0,0],"sum_hessian":[2.64E2,1.05E2,1.59E2,3.3E1,7.2E1,1.42E2,1.7E1,1.7E1,1.6E1,1.9E1,5.3E1,1.39E2,3E0,1.2E1,5E0,8E0,9E0,1.3E1,3E0,4E0,1.5E1,7E0,4.6E1,1.13E2,2.6E1,3E0,2E0],"tree_param":{"num_deleted":"0","num_feature":"13","num_nodes":"27","size_leaf_vector":"1"}},{"base_weights":[-1.5424453E-1,-6.179168E0,4.1255636E0,-2.6257985E0,-8.98707E0,2.1366973E0,1.649062E1,9.582502E-1,-7.73729E0,3.583945E0,-1.0021577E1,3.0350528E0,-4.985342E-1,1.9761816E1,3.3553467E0,-1.0206074E-1,2.0321868E-1,1.11990966E-1,-3.2224563E-1,-1.6688873E-1,3.174144E-1,-5.53053E-1,-2.3476271E-1,3.605058E-2,2.7917922E-1,3.5086896E-2,6.211361E-1,-7.161301E-2,2.4699225E-1],"categories":[],"categories_nodes":[],"categories_segments":[],"categories_sizes":[],"default_left":[0,0,0,0,0,0,0,0,0,0,0,0,0,0,0,0,0,0,0,0,0,0,0,0,0,0,0,0,0],"id":10,"left_children":[1,3,5,7,9,11,13,15,17,19,21,23,-1,25,27,-1,-1,-1,-1,-1,-1,-1,-1,-1,-1,-1,-1,-1,-1],"loss_changes":[7.1417095E3,1.0766191E3,3.8782698E3,1.0298337E3,9.2705273E2,2.5606025E3,7.46374E2,9.5666815E2,9.128638E2,6.2455273E2,6.573789E2,1.5645204E3,0E0,2.2531934E2,2.830403E2,0E0,0E0,0E0,0E0,0E0,0E0,0E0,0E0,0E0,0E0,0E0,0E0,0E0,0E0],"parents":[2147483647,0,0,1,1,2,2,3,3,4,4,5,5,6,6,7,7,8,8,9,9,10,10,11,11,13,13,14,14],"right_children":[2,4,6,8,10,12,14,16,18,20,22,24,-1,26,28,-1,-1,-1,-1,-1,-1,-1,-1,-1,-1,-1,-1,-1,-1],"split_conditions":[4.05E2,-3.1358386E-14,4.2042856E2,4.11E2,4.0082144E2,4.192857E2,4.35E2,4.0660715E2,4.005E2,4.07E2,3.932857E2,4.1557144E2,-4.985342E-1,4.077143E2,4.42E2,-1.0206074E-1,2.0321868E-1,1.11990966E-1,-3.2224563E-1,-1.6688873E-1,3.174144E-1,-5.53053E-1,-2.3476271E-1,3.605058E-2,2.7917922E-1,3.5086896E-2,6.211361E-1,-7.161301E-2,2.4699225E-1],"split_indices":[3,9,3,0,5,3,0,5,4,1,3,3,0,4,0,0,0,0,0,0,0,0,0,0,0,0,0,0,0],"split_type":[0,0,0,0,0,0,0,0,0,0,0,0,0,0,0,0,0,0,0,0,0,0,0,0,0,0,0,0,0],"sum_hessian":[2.71E2,1.12E2,1.59E2,5.2E1,6E1,1.4E2,1.9E1,3.2E1,2E1,4E0,5.6E1,1.36E2,4E0,1.4E1,5E0,1.9E1,1.3E1,4E0,1.6E1,2E0,2E0,7E0,4.9E1,1.08E2,2.8E1,1E0,1.3E1,3E0,2E0],"tree_param":{"num_deleted":"0","num_feature":"13","num_nodes":"29","size_leaf_vector":"1"}},{"base_weights":[8.0477196E-1,-1.7878051E0,1.1707815E1,-1.07840805E1,1.043175E-1,1.2694824E1,-2.6751456E-1,1.6532135E0,-1.2065036E1,2.3873818E0,-3.0776904E0,1.5466925E1,3.5028179E0,-1.01441115E-1,1.4066857E-1,-5.4934293E-1,-2.088229E-1,2.1238153E-1,-3.574031E-2,1.6415136E-1,-1.658847E-1,5.29321E-1,1.3539696E-1,-1.874121E-1,2.6255932E-1],"categories":[],"categories_nodes":[],"categories_segments":[],"categories_sizes":[],"default_left":[0,0,0,0,0,0,0,0,0,0,0,0,0,0,0,0,0,0,0,0,0,0,0,0,0],"id":11,"left_children":[1,3,5,7,9,11,-1,13,15,17,19,21,23,-1,-1,-1,-1,-1,-1,-1,-1,-1,-1,-1,-1],"loss_changes":[7.21434E3,3.5269404E3,1.3370991E3,6.3337695E2,1.2861057E3,1.060563E3,0E0,1.3926736E2,6.6976465E2,1.7548151E3,1.6419124E3,6.1961035E2,9.3170355E2,0E0,0E0,0E0,0E0,0E0,0E0,0E0,0E0,0E0,0E0,0E0,0E0],"parents":[2147483647,0,0,1,1,2,2,3,3,4,4,5,5,7,7,8,8,9,9,10,10,11,11,12,12],"right_children":[2,4,6,8,10,12,-1,14,16,18,20,22,24,-1,-1,-1,-1,-1,-1,-1,-1,-1,-1,-1,-1],"split_conditions":[4.1557144E2,3.98E2,4.39E2,3.82E2,8E0,4.24E2,-2.6751456E-1,3.73E2,-2.2252093E-1,4.082143E2,3.9E2,4.35E2,4.06E2,-1.01441115E-1,1.4066857E-1,-5.4934293E-1,-2.088229E-1,2.1238153E-1,-3.574031E-2,1.6415136E-1,-1.658847E-1,5.29321E-1,1.3539696E-1,-1.874121E-1,2.6255932E-1],"split_indices":[3,3,1,2,7,2,0,1,10,4,0,0,0,0,0,0,0,0,0,0,0,0,0,0,0],"split_type":[0,0,0,0,0,0,0,0,0,0,0,0,0,0,0,0,0,0,0,0,0,0,0,0,0],"sum_hessian":[2.5E2,2.04E2,4.6E1,3.3E1,1.71E2,4.5E1,1E0,3E0,3E1,1E2,7.1E1,3.3E1,1.2E1,1E0,2E0,1E1,2E1,4.2E1,5.8E1,1.5E1,5.6E1,2.6E1,7E0,4E0,8E0],"tree_param":{"num_deleted":"0","num_feature":"13","num_nodes":"25","size_leaf_vector":"1"}},{"base_weights":[3.011443E-1,-6.4329743E0,5.030922E0,-2.4203503E0,-9.4714155E0,3.1889868E0,1.5731394E1,-6.0803356E0,4.1646776E0,2.2276703E-1,-1.01243105E1,4.18765E0,-9.301547E0,-6.255127E-1,1.746091E1,1.3244826E-2,-3.2135522E-1,3.331545E-1,1.0420303E-2,-3.649833E-1,-1.481565E-1,5.7159405E-2,3.534592E-1,2.1314429E-1,-4.594702E-1,3.0853728E-2,-5.4310456E-2,1.4988713E-1,5.8920854E-1],"categories":[],"categories_nodes":[],"categories_segments":[],"categories_sizes":[],"default_left":[0,0,0,0,0,0,0,0,0,0,0,0,0,0,0,0,0,0,0,0,0,0,0,0,0,0,0,0,0],"id":12,"left_children":[1,3,5,7,9,11,13,15,17,-1,19,21,23,25,27,-1,-1,-1,-1,-1,-1,-1,-1,-1,-1,-1,-1,-1,-1],"loss_changes":[8.410171E3,1.260169E3,2.9044827E3,1.3051243E3,8.9848535E2,1.813297E3,6.551367E2,1.0411876E3,5.183102E2,0E0,4.5504834E2,2.151254E3,1.4118137E3,1.5384017E1,2.489209E2,0E0,0E0,0E0,0E0,0E0,0E0,0E0,0E0,0E0,0E0,0E0,0E0,0E0,0E0],"parents":[2147483647,0,0,1,1,2,2,3,3,4,4,5,5,6,6,7,7,8,8,10,10,11,11,12,12,13,13,14,14],"right_children":[2,4,6,8,10,12,14,16,18,-1,20,22,24,26,28,-1,-1,-1,-1,-1,-1,-1,-1,-1,-1,-1,-1,-1,-1],"split_conditions":[4.05E2,-3.1358386E-14,4.2042856E2,4.065E2,3.55E2,4.192857E2,4.077143E2,3.9914285E2,3.97E2,2.2276703E-1,9E0,4.1557144E2,-2.2252093E-1,4.1E2,-7.818315E-1,1.3244826E-2,-3.2135522E-1,3.331545E-1,1.0420303E-2,-3.649833E-1,-1.481565E-1,5.7159405E-2,3.534592E-1,2.1314429E-1,-4.594702E-1,3.0853728E-2,-5.4310456E-2,1.4988713E-1,5.8920854E-1],"split_indices":[3,9,3,5,2,3,4,3,1,0,7,3,10,1,11,0,0,0,0,0,0,0,0,0,0,0,0,0,0],"split_type":[0,0,0,0,0,0,0,0,0,0,0,0,0,0,0,0,0,0,0,0,0,0,0,0,0,0,0,0,0],"sum_hessian":[2.58E2,1.06E2,1.52E2,4.8E1,5.8E1,1.33E2,1.9E1,3.1E1,1.7E1,1E0,5.7E1,1.25E2,8E0,2E0,1.7E1,1.4E1,1.7E1,4E0,1.3E1,3.8E1,1.9E1,9.9E1,2.6E1,2E0,6E0,1E0,1E0,4E0,1.3E1],"tree_param":{"num_deleted":"0","num_feature":"13","num_nodes":"29","size_leaf_vector":"1"}},{"base_weights":[1.2818905E0,-6.2973742E0,6.042266E0,-1.1209401E1,-3.1829937E0,1.3200608E0,9.67109E0,1.8540736E0,-1.2909875E1,9.625617E-1,-7.4160542E0,-6.692641E0,4.511158E0,3.9190793E0,1.1146562E1,-9.794288E-2,1.3018782E-1,-4.7509873E-1,-7.413682E-2,2.9612193E-1,-1.4176093E-1,-3.661083E-1,-2.2696245E-2,6.972918E-3,-4.1043308E-1,-7.8433424E-2,2.235866E-1,1.7563476E-1,-1.3475509E-1,3.8820297E-1,1.8274307E-1],"categories":[],"categories_nodes":[],"categories_segments":[],"categories_sizes":[],"default_left":[0,0,0,0,0,0,0,0,0,0,0,0,0,0,0,0,0,0,0,0,0,0,0,0,0,0,0,0,0,0,0],"id":13,"left_children":[1,3,5,7,9,11,13,15,17,19,21,23,25,27,29,-1,-1,-1,-1,-1,-1,-1,-1,-1,-1,-1,-1,-1,-1,-1,-1],"loss_changes":[9.422829E3,1.438052E3,2.7034697E3,9.1594336E2,1.1796088E3,1.9571344E3,6.3276953E2,1.3156407E2,9.213369E2,1.9640131E3,1.0244343E3,1.0742429E3,1.190382E3,4.5329996E2,3.981875E2,0E0,0E0,0E0,0E0,0E0,0E0,0E0,0E0,0E0,0E0,0E0,0E0,0E0,0E0,0E0,0E0],"parents":[2147483647,0,0,1,1,2,2,3,3,4,4,5,5,6,6,7,7,8,8,9,9,10,10,11,11,12,12,13,13,14,14],"right_children":[2,4,6,8,10,12,14,16,18,20,22,24,26,28,30,-1,-1,-1,-1,-1,-1,-1,-1,-1,-1,-1,-1,-1,-1,-1,-1],"split_conditions":[4.05E2,3.98E2,4.087857E2,3.82E2,3.431487E-15,5E0,4.0985715E2,3.73E2,1E1,4.0057144E2,4.027143E2,4.0785715E2,4.057857E2,4.0885715E2,4.1385715E2,-9.794288E-2,1.3018782E-1,-4.7509873E-1,-7.413682E-2,2.9612193E-1,-1.4176093E-1,-3.661083E-1,-2.2696245E-2,6.972918E-3,-4.1043308E-1,-7.8433424E-2,2.235866E-1,1.7563476E-1,-1.3475509E-1,3.8820297E-1,1.8274307E-1],"split_indices":[3,3,5,2,9,7,3,1,7,3,3,4,4,3,5,0,0,0,0,0,0,0,0,0,0,0,0,0,0,0,0],"split_type":[0,0,0,0,0,0,0,0,0,0,0,0,0,0,0,0,0,0,0,0,0,0,0,0,0,0,0,0,0,0,0],"sum_hessian":[2.55E2,9.8E1,1.57E2,3.5E1,6.3E1,7E1,8.7E1,4E0,3.1E1,3.3E1,3E1,1.9E1,5.1E1,2E1,6.7E1,1E0,3E0,2.3E1,8E0,1.2E1,2.1E1,1.6E1,1.4E1,1.1E1,8E0,1.5E1,3.6E1,1.7E1,3E0,4.6E1,2.1E1],"tree_param":{"num_deleted":"0","num_feature":"13","num_nodes":"31","size_leaf_vector":"1"}},{"base_weights":[-9.861959E-1,-5.1363444E0,5.862095E0,-1.2286595E1,-3.6146965E0,9.95224E-2,9.352531E0,-9.541071E-1,-1.690752E1,-4.257053E0,5.820346E0,5.1536016E0,-8.447897E0,1.4921459E1,5.063281E0,9.697001E-2,-2.3751709E-1,1.6223991E-1,-5.7145816E-1,-9.0606086E-2,-3.750996E-1,-2.4667585E-1,3.7243536E-1,3.5768363E-1,1.2626182E-2,-3.455512E-1,1.5654528E-1,5.1099676E-1,-8.472594E-3,3.68174E-1,1.4867723E-2],"categories":[],"categories_nodes":[],"categories_segments":[],"categories_sizes":[],"default_left":[0,0,0,0,0,0,0,0,0,0,0,0,0,0,0,0,0,0,0,0,0,0,0,0,0,0,0,0,0,0,0],"id":14,"left_children":[1,3,5,7,9,11,13,15,17,19,21,23,25,27,29,-1,-1,-1,-1,-1,-1,-1,-1,-1,-1,-1,-1,-1,-1,-1,-1],"loss_changes":[7.3662144E3,1.6184697E3,1.9683691E3,1.3655027E3,9.046428E2,1.8585847E3,1.2304233E3,3.9743146E2,1.216853E3,1.2126338E3,1.2322465E3,8.499376E2,8.516964E2,8.171084E2,1.2659978E3,0E0,0E0,0E0,0E0,0E0,0E0,0E0,0E0,0E0,0E0,0E0,0E0,0E0,0E0,0E0,0E0],"parents":[2147483647,0,0,1,1,2,2,3,3,4,4,5,5,6,6,7,7,8,8,9,9,10,10,11,11,12,12,13,13,14,14],"right_children":[2,4,6,8,10,12,14,16,18,20,22,24,26,28,30,-1,-1,-1,-1,-1,-1,-1,-1,-1,-1,-1,-1,-1,-1,-1,-1],"split_conditions":[4.1057144E2,3.972857E2,4.087857E2,-2.2252093E-1,4.42E2,4.2E2,4.1064285E2,4.05E2,3.7E2,4.0857144E2,-2.2252093E-1,4.067143E2,4.2E2,4.24E2,4.01E2,9.697001E-2,-2.3751709E-1,1.6223991E-1,-5.7145816E-1,-9.0606086E-2,-3.750996E-1,-2.4667585E-1,3.7243536E-1,3.5768363E-1,1.2626182E-2,-3.455512E-1,1.5654528E-1,5.1099676E-1,-8.472594E-3,3.68174E-1,1.4867723E-2],"split_indices":[3,3,5,12,2,1,5,4,2,3,12,5,2,2,1,0,0,0,0,0,0,0,0,0,0,0,0,0,0,0,0],"split_type":[0,0,0,0,0,0,0,0,0,0,0,0,0,0,0,0,0,0,0,0,0,0,0,0,0,0,0,0,0,0,0],"sum_hessian":[2.53E2,1.58E2,9.5E1,2.4E1,1.34E2,3.7E1,5.8E1,8E0,1.6E1,1.27E2,7E0,2.4E1,1.3E1,2.2E1,3.6E1,6E0,2E0,1E0,1.5E1,1.14E2,1.3E1,2E0,5E0,8E0,1.6E1,1.1E1,2E0,1.9E1,3E0,1.2E1,2.4E1],"tree_param":{"num_deleted":"0","num_feature":"13","num_nodes":"31","size_leaf_vector":"1"}},{"base_weights":[-3.7052023E-1,-4.3130975E0,4.205561E0,7.3629217E0,-5.4890738E0,4.9131837E0,-4.146293E0,1.1172574E1,-3.3029022E0,3.369467E-1,-6.1599264E0,3.2692018E0,1.0241938E1,6.598419E0,-3.9342067E-1,-4.4370573E-2,3.8644317E-1,-2.5149792E-1,1.657418E-1,-1.22259706E-1,-2.6023158E-1,1.4996126E-1,-1.7001079E-1,3.8007265E-1,9.999962E-3,-6.228401E-2,2.7246734E-1],"categories":[],"categories_nodes":[],"categories_segments":[],"categories_sizes":[],"default_left":[0,0,0,0,0,0,0,0,0,0,0,0,0,0,0,0,0,0,0,0,0,0,0,0,0,0,0],"id":15,"left_children":[1,3,5,7,9,11,13,15,17,-1,19,21,23,25,-1,-1,-1,-1,-1,-1,-1,-1,-1,-1,-1,-1,-1],"loss_changes":[4.673055E3,2.0298174E3,7.703096E2,6.795689E2,1.6433425E3,8.8071313E2,1.3195078E3,2.9497424E2,4.08031E2,0E0,5.491533E2,1.4759578E3,5.8857324E2,2.0739035E2,0E0,0E0,0E0,0E0,0E0,0E0,0E0,0E0,0E0,0E0,0E0,0E0,0E0],"parents":[2147483647,0,0,1,1,2,2,3,3,4,4,5,5,6,6,7,7,8,8,10,10,11,11,12,12,13,13],"right_children":[2,4,6,8,10,12,14,16,18,-1,20,22,24,26,-1,-1,-1,-1,-1,-1,-1,-1,-1,-1,-1,-1,-1],"split_conditions":[4.0832144E2,3.78E2,4.45E2,1E1,3.63E2,4.132143E2,4.1064285E2,3.76E2,3.72E2,3.369467E-1,6.234898E-1,4.1192856E2,4.32E2,3.83E2,-3.9342067E-1,-4.4370573E-2,3.8644317E-1,-2.5149792E-1,1.657418E-1,-1.22259706E-1,-2.6023158E-1,1.4996126E-1,-1.7001079E-1,3.8007265E-1,9.999962E-3,-6.228401E-2,2.7246734E-1],"split_indices":[5,2,0,7,1,5,5,0,2,0,12,5,1,1,0,0,0,0,0,0,0,0,0,0,0,0,0],"split_type":[0,0,0,0,0,0,0,0,0,0,0,0,0,0,0,0,0,0,0,0,0,0,0,0,0,0,0],"sum_hessian":[2.53E2,1.36E2,1.17E2,1.1E1,1.25E2,1.09E2,8E0,8E0,3E0,3E0,1.22E2,8.7E1,2.2E1,4E0,4E0,1E0,7E0,2E0,1E0,7.1E1,5.1E1,7.4E1,1.3E1,1.7E1,5E0,1E0,3E0],"tree_param":{"num_deleted":"0","num_feature":"13","num_nodes":"27","size_leaf_vector":"1"}},{"base_weights":[-4.632215E-1,-7.216262E0,2.7228541E0,-1.1072403E1,-4.2382326E0,7.055509E-1,8.279438E0,-1.332568E1,-2.931574E0,6.6023755E0,-6.7747083E0,-2.948929E-1,9.623683E0,1.1960976E1,1.049679E-1,-4.3308708E-1,9.99575E-2,-1.9768341E-1,1.0234131E-1,-6.466659E-2,3.2084793E-1,7.381326E-2,-2.9674077E-1,1.6866556E-1,-6.451327E-2,3.5200202E-1,3.8869325E-2,6.1318215E-2,4.9174145E-1,3.0061665E-1,-1.5775254E-1],"categories":[],"categories_nodes":[],"categories_segments":[],"categories_sizes":[],"default_left":[0,0,0,0,0,0,0,0,0,0,0,0,0,0,0,0,0,0,0,0,0,0,0,0,0,0,0,0,0,0,0],"id":16,"left_children":[1,3,5,7,9,11,13,15,17,19,21,23,25,27,29,-1,-1,-1,-1,-1,-1,-1,-1,-1,-1,-1,-1,-1,-1,-1,-1],"loss_changes":[5.3733237E3,7.7791406E2,1.8880587E3,4.881411E2,1.5090347E3,1.1505414E3,1.3504917E3,6.0678076E2,3.2265604E2,4.6342587E2,1.2818862E3,1.3318436E3,1.8280078E2,1.2615225E3,1.062156E3,0E0,0E0,0E0,0E0,0E0,0E0,0E0,0E0,0E0,0E0,0E0,0E0,0E0,0E0,0E0,0E0],"parents":[2147483647,0,0,1,1,2,2,3,3,4,4,5,5,6,6,7,7,8,8,9,9,10,10,11,11,12,12,13,13,14,14],"right_children":[2,4,6,8,10,12,14,16,18,20,22,24,26,28,30,-1,-1,-1,-1,-1,-1,-1,-1,-1,-1,-1,-1,-1,-1,-1,-1],"split_conditions":[4.0357144E2,3.98E2,4.1557144E2,7.818315E-1,3.9914285E2,4.1317856E2,4.1357144E2,1.1E1,3.942857E2,3.94E2,3.89E2,4.0457144E2,4.1385715E2,4.0985715E2,2E0,-4.3308708E-1,9.99575E-2,-1.9768341E-1,1.0234131E-1,-6.466659E-2,3.2084793E-1,7.381326E-2,-2.9674077E-1,1.6866556E-1,-6.451327E-2,3.5200202E-1,3.8869325E-2,6.1318215E-2,4.9174145E-1,3.0061665E-1,-1.5775254E-1],"split_indices":[3,3,3,9,3,5,5,7,3,0,0,4,5,4,6,0,0,0,0,0,0,0,0,0,0,0,0,0,0,0,0],"split_type":[0,0,0,0,0,0,0,0,0,0,0,0,0,0,0,0,0,0,0,0,0,0,0,0,0,0,0,0,0,0,0],"sum_hessian":[2.44E2,7.7E1,1.67E2,3E1,4.7E1,1.25E2,4.2E1,2.2E1,8E0,8E0,3.9E1,1.15E2,1E1,2.8E1,1.4E1,2.1E1,1E0,5E0,3E0,3E0,5E0,1E1,2.9E1,2.6E1,8.9E1,7E0,3E0,1E1,1.8E1,4E0,1E1],"tree_param":{"num_deleted":"0","num_feature":"13","num_nodes":"31","size_leaf_vector":"1"}},{"base_weights":[-1.10086024E-1,-2.313015E0,9.112989E0,-5.714957E0,-4.3980673E-2,1.1154977E1,1.6176671E0,-4.6053466E-1,-7.618552E0,-9.574681E-1,9.767242E0,3.2579672E0,1.4010281E1,8.27832E0,-4.842136E0,-8.288787E-2,1.9932063E-1,-2.5759676E-1,2.187032E-2,2.3513672E-1,-5.432673E-2,-1.3662483E-1,3.7696892E-1,-5.3696517E-2,4.025409E-1,3.8918607E-2,4.3048665E-1,1.4888076E-2,2.7532065E-1,-2.0917556E-1,-8.720551E-3],"categories":[],"categories_nodes":[],"categories_segments":[],"categories_sizes":[],"default_left":[0,0,0,0,0,0,0,0,0,0,0,0,0,0,0,0,0,0,0,0,0,0,0,0,0,0,0,0,0,0,0],"id":17,"left_children":[1,3,5,7,9,11,13,15,17,19,21,23,25,27,29,-1,-1,-1,-1,-1,-1,-1,-1,-1,-1,-1,-1,-1,-1,-1,-1],"loss_changes":[5.162998E3,1.5816663E3,6.958274E2,8.0966187E2,1.1573214E3,7.1990283E2,7.2262537E2,4.6400818E2,5.0360938E2,9.2830786E2,6.125232E2,7.900609E2,6.0609863E1,4.2307312E1,8.11866E1,0E0,0E0,0E0,0E0,0E0,0E0,0E0,0E0,0E0,0E0,0E0,0E0,0E0,0E0,0E0,0E0],"parents":[2147483647,0,0,1,1,2,2,3,3,4,4,5,5,6,6,7,7,8,8,9,9,10,10,11,11,12,12,13,13,14,14],"right_children":[2,4,6,8,10,12,14,16,18,20,22,24,26,28,30,-1,-1,-1,-1,-1,-1,-1,-1,-1,-1,-1,-1,-1,-1,-1,-1],"split_conditions":[4.1557144E2,4.0357144E2,4.22E2,-2.2252093E-1,4.34E2,3.89E2,4.04E2,4.3E2,4.37E2,4.0442856E2,3.97E2,4.26E2,3.91E2,4.25E2,4.17E2,-8.288787E-2,1.9932063E-1,-2.5759676E-1,2.187032E-2,2.3513672E-1,-5.432673E-2,-1.3662483E-1,3.7696892E-1,-5.3696517E-2,4.025409E-1,3.8918607E-2,4.3048665E-1,1.4888076E-2,2.7532065E-1,-2.0917556E-1,-8.720551E-3],"split_indices":[3,3,2,12,2,2,1,2,1,3,0,1,0,2,1,0,0,0,0,0,0,0,0,0,0,0,0,0,0,0,0],"split_type":[0,0,0,0,0,0,0,0,0,0,0,0,0,0,0,0,0,0,0,0,0,0,0,0,0,0,0,0,0,0,0],"sum_hessian":[2.48E2,2.02E2,4.6E1,7.9E1,1.23E2,3.5E1,1.1E1,2.2E1,5.7E1,1.15E2,8E0,1.1E1,2.4E1,5E0,6E0,1.8E1,4E0,5.1E1,6E0,8E0,1.07E2,1E0,7E0,9E0,2E0,1E0,2.3E1,1E0,4E0,3E0,3E0],"tree_param":{"num_deleted":"0","num_feature":"13","num_nodes":"31","size_leaf_vector":"1"}},{"base_weights":[1.3184534E-1,-8.31392E0,1.2037836E0,-1.3734378E1,1.943843E0,3.6230397E-1,8.949359E0,-1.6078482E1,-2.255605E-1,6.6076727E0,-4.8855853E0,1.0540079E0,-9.11733E0,5.25361E-1,2.83688E0,-7.3474996E-2,-5.912078E-1,9.579963E-2,-8.475988E-2,2.3990524E-1,5.744003E-2,-1.7992462E-1,1.3393707E-2,-1.8026773E-2,1.3862045E-1,1.17892146E-1,-4.0084592E-1,1.8636279E-1,-2.6972663E-1],"categories":[],"categories_nodes":[],"categories_segments":[],"categories_sizes":[],"default_left":[0,0,0,0,0,0,0,0,0,0,0,0,0,0,0,0,0,0,0,0,0,0,0,0,0,0,0,0,0],"id":18,"left_children":[1,3,5,7,9,11,13,15,17,19,21,23,25,-1,27,-1,-1,-1,-1,-1,-1,-1,-1,-1,-1,-1,-1,-1,-1],"loss_changes":[2.4110525E3,1.7481458E3,1.5284604E3,6.2244165E2,5.1091385E2,1.4451627E3,1.0547622E3,6.959077E2,8.039638E1,1.27404785E1,4.953383E1,1.2124376E3,9.8813794E2,0E0,8.462177E2,0E0,0E0,0E0,0E0,0E0,0E0,0E0,0E0,0E0,0E0,0E0,0E0,0E0,0E0],"parents":[2147483647,0,0,1,1,2,2,3,3,4,4,5,5,6,6,7,7,8,8,9,9,10,10,11,11,12,12,14,14],"right_children":[2,4,6,8,10,12,14,16,18,20,22,24,26,-1,28,-1,-1,-1,-1,-1,-1,-1,-1,-1,-1,-1,-1,-1,-1],"split_conditions":[4.0042856E2,4.3388373E-1,4.132857E2,4.1E2,4.01E2,4.1216E2,4.1360715E2,-2.2252093E-1,3.9864285E2,3.75E2,4.2E2,4.0917856E2,3.89E2,5.25361E-1,6E0,-7.3474996E-2,-5.912078E-1,9.579963E-2,-8.475988E-2,2.3990524E-1,5.744003E-2,-1.7992462E-1,1.3393707E-2,-1.8026773E-2,1.3862045E-1,1.17892146E-1,-4.0084592E-1,1.8636279E-1,-2.6972663E-1],"split_indices":[4,11,5,0,0,5,5,12,4,0,0,5,0,0,6,0,0,0,0,0,0,0,0,0,0,0,0,0,0],"split_type":[0,0,0,0,0,0,0,0,0,0,0,0,0,0,0,0,0,0,0,0,0,0,0,0,0,0,0,0,0],"sum_hessian":[2.6E2,2.7E1,2.33E2,1.7E1,1E1,2.13E2,2E1,1.4E1,3E0,6E0,4E0,2.01E2,1.2E1,6E0,1.4E1,4E0,1E1,1E0,2E0,3E0,3E0,3E0,1E0,1.39E2,6.2E1,3E0,9E0,1.2E1,2E0],"tree_param":{"num_deleted":"0","num_feature":"13","num_nodes":"29","size_leaf_vector":"1"}},{"base_weights":[-4.3737158E-1,-6.563784E0,3.1135185E0,-7.4062123E0,1.1847662E0,1.6811184E0,1.3930331E1,-8.96547E0,-2.9450312E0,9.228966E0,-8.516362E0,2.4843378E0,-4.0522957E-1,-8.382629E-1,1.58157425E1,-1.2381237E-1,-3.3269626E-1,-2.5088164E-1,9.184997E-2,3.068208E-1,1.6801529E-2,-3.400695E-1,-1.7617675E-2,-3.1819154E-2,1.4652686E-1,2.3626557E-2,-5.5061415E-2,5.20926E-1,-6.719696E-2],"categories":[],"categories_nodes":[],"categories_segments":[],"categories_sizes":[],"default_left":[0,0,0,0,0,0,0,0,0,0,0,0,0,0,0,0,0,0,0,0,0,0,0,0,0,0,0,0,0],"id":19,"left_children":[1,3,5,7,9,11,13,15,17,19,21,23,-1,25,27,-1,-1,-1,-1,-1,-1,-1,-1,-1,-1,-1,-1,-1,-1],"loss_changes":[5.6956523E3,6.5297314E2,2.501749E3,5.2597266E2,1.1722454E3,1.9306599E3,5.688252E2,5.1025195E2,9.5545703E2,5.205652E1,1.3651028E2,1.249137E3,0E0,1.2442015E1,5.919751E2,0E0,0E0,0E0,0E0,0E0,0E0,0E0,0E0,0E0,0E0,0E0,0E0,0E0,0E0],"parents":[2147483647,0,0,1,1,2,2,3,3,4,4,5,5,6,6,7,7,8,8,9,9,10,10,11,11,13,13,14,14],"right_children":[2,4,6,8,10,12,14,16,18,20,22,24,-1,26,28,-1,-1,-1,-1,-1,-1,-1,-1,-1,-1,-1,-1,-1,-1],"split_conditions":[4.05E2,4.37E2,4.202857E2,7.818315E-1,4.45E2,4.192857E2,4.077143E2,3.98E2,8E0,4.44E2,4.08E2,6E0,-4.0522957E-1,4.1E2,4.207857E2,-1.2381237E-1,-3.3269626E-1,-2.5088164E-1,9.184997E-2,3.068208E-1,1.6801529E-2,-3.400695E-1,-1.7617675E-2,-3.1819154E-2,1.4652686E-1,2.3626557E-2,-5.5061415E-2,5.20926E-1,-6.719696E-2],"split_indices":[3,1,3,9,1,3,4,2,7,1,2,7,0,1,4,0,0,0,0,0,0,0,0,0,0,0,0,0,0],"split_type":[0,0,0,0,0,0,0,0,0,0,0,0,0,0,0,0,0,0,0,0,0,0,0,0,0,0,0,0,0],"sum_hessian":[2.56E2,9.3E1,1.63E2,8.4E1,9E0,1.47E2,1.6E1,6E1,2.4E1,5E0,4E0,1.42E2,5E0,2E0,1.4E1,2.1E1,3.9E1,1.2E1,1.2E1,4E0,1E0,2E0,2E0,5.8E1,8.4E1,1E0,1E0,1.3E1,1E0],"tree_param":{"num_deleted":"0","num_feature":"13","num_nodes":"29","size_leaf_vector":"1"}},{"base_weights":[1.22275E0,-4.506192E0,4.7718544E0,-7.934896E0,-6.0348187E-2,3.2945457E0,1.4766565E1,4.586694E0,-9.67783E0,-2.8939123E0,4.9871573E0,4.2804337E0,-8.702489E0,1.684724E1,1.4880371E0,-1.5404132E-1,2.8694484E-1,-4.250347E-2,-3.7176377E-1,-2.0395313E-1,5.2529458E-2,1.7671062E-1,-7.77539E-2,4.3693166E-2,1.897293E-1,2.0381506E-1,-4.1519713E-1,6.796783E-2,5.501502E-1,1.8830314E-1,-9.7073175E-2],"categories":[],"categories_nodes":[],"categories_segments":[],"categories_sizes":[],"default_left":[0,0,0,0,0,0,0,0,0,0,0,0,0,0,0,0,0,0,0,0,0,0,0,0,0,0,0,0,0,0,0],"id":20,"left_children":[1,3,5,7,9,11,13,15,17,19,21,23,25,27,29,-1,-1,-1,-1,-1,-1,-1,-1,-1,-1,-1,-1,-1,-1,-1,-1],"loss_changes":[5.3509883E3,1.5381548E3,2.2460273E3,1.3771531E3,7.155115E2,1.8267726E3,4.773579E2,5.8288794E2,1.0908984E3,6.160674E2,1.690149E2,7.573452E2,1.2374109E3,2.4498438E2,1.9665704E2,0E0,0E0,0E0,0E0,0E0,0E0,0E0,0E0,0E0,0E0,0E0,0E0,0E0,0E0,0E0,0E0],"parents":[2147483647,0,0,1,1,2,2,3,3,4,4,5,5,6,6,7,7,8,8,9,9,10,10,11,11,12,12,13,13,14,14],"right_children":[2,4,6,8,10,12,14,16,18,20,22,24,26,28,30,-1,-1,-1,-1,-1,-1,-1,-1,-1,-1,-1,-1,-1,-1,-1,-1],"split_conditions":[4.0485715E2,4E0,4.2042856E2,4.012143E2,4.17E2,4.187143E2,4.35E2,4.0032144E2,3.86E2,4.0514285E2,4.39E2,4.0832144E2,-2.2252093E-1,3.79E2,4.01E2,-1.5404132E-1,2.8694484E-1,-4.250347E-2,-3.7176377E-1,-2.0395313E-1,5.2529458E-2,1.7671062E-1,-7.77539E-2,4.3693166E-2,1.897293E-1,2.0381506E-1,-4.1519713E-1,6.796783E-2,5.501502E-1,1.8830314E-1,-9.7073175E-2],"split_indices":[3,6,3,5,1,3,0,5,0,5,2,5,10,2,1,0,0,0,0,0,0,0,0,0,0,0,0,0,0,0,0],"split_type":[0,0,0,0,0,0,0,0,0,0,0,0,0,0,0,0,0,0,0,0,0,0,0,0,0,0,0,0,0,0,0],"sum_hessian":[2.57E2,9.8E1,1.59E2,5.4E1,4.4E1,1.42E2,1.7E1,6E0,4.8E1,2.9E1,1.5E1,1.33E2,9E0,1.4E1,3E0,2E0,4E0,1.3E1,3.5E1,1.5E1,1.4E1,1.4E1,1E0,5.8E1,7.5E1,2E0,7E0,2E0,1.2E1,1E0,2E0],"tree_param":{"num_deleted":"0","num_feature":"13","num_nodes":"31","size_leaf_vector":"1"}},{"base_weights":[-3.4710076E-1,-5.130969E0,4.407529E0,-7.7078075E0,-1.6667407E0,2.4340851E0,1.0610703E1,-8.880891E0,2.2295775E0,1.5822685E0,-7.6172237E0,-9.801039E-1,4.816119E0,1.2460203E1,-8.063093E-1,-1.6500838E-1,-4.19057E-1,1.955943E-1,-1.1671448E-1,1.5458496E-1,-1.2473452E-1,-3.2664105E-1,2.814659E-1,8.439145E-2,-2.0783828E-1,2.0881343E-1,-1.5498138E-2,-5.8718625E-2,4.1718963E-1,2.753714E-1,-3.0923638E-1],"categories":[],"categories_nodes":[],"categories_segments":[],"categories_sizes":[],"default_left":[0,0,0,0,0,0,0,0,0,0,0,0,0,0,0,0,0,0,0,0,0,0,0,0,0,0,0,0,0,0,0],"id":21,"left_children":[1,3,5,7,9,11,13,15,17,19,21,23,25,27,29,-1,-1,-1,-1,-1,-1,-1,-1,-1,-1,-1,-1,-1,-1,-1,-1],"loss_changes":[5.7997163E3,1.0951572E3,1.4894448E3,8.987334E2,1.1574817E3,8.355653E2,6.636133E2,8.874717E2,3.3866043E2,8.840872E2,1.4741008E3,1.0511525E3,6.9689404E2,6.2374E2,9.479854E2,0E0,0E0,0E0,0E0,0E0,0E0,0E0,0E0,0E0,0E0,0E0,0E0,0E0,0E0,0E0,0E0],"parents":[2147483647,0,0,1,1,2,2,3,3,4,4,5,5,6,6,7,7,8,8,9,9,10,10,11,11,12,12,13,13,14,14],"right_children":[2,4,6,8,10,12,14,16,18,20,22,24,26,28,30,-1,-1,-1,-1,-1,-1,-1,-1,-1,-1,-1,-1,-1,-1,-1,-1],"split_conditions":[4.072857E2,4.3388373E-1,4.177143E2,4.33E2,4.1E2,-3.91887E-15,4.45E2,9E0,4.0492856E2,6.234898E-1,4.0642856E2,4.14E2,3E0,4.107143E2,4.1264285E2,-1.6500838E-1,-4.19057E-1,1.955943E-1,-1.1671448E-1,1.5458496E-1,-1.2473452E-1,-3.2664105E-1,2.814659E-1,8.439145E-2,-2.0783828E-1,2.0881343E-1,-1.5498138E-2,-5.8718625E-2,4.1718963E-1,2.753714E-1,-3.0923638E-1],"split_indices":[3,11,3,1,0,9,0,7,4,12,3,3,6,4,4,0,0,0,0,0,0,0,0,0,0,0,0,0,0,0,0],"split_type":[0,0,0,0,0,0,0,0,0,0,0,0,0,0,0,0,0,0,0,0,0,0,0,0,0,0,0,0,0,0,0],"sum_hessian":[2.49E2,1.24E2,1.25E2,6.9E1,5.5E1,9.8E1,2.7E1,6.2E1,7E0,3.7E1,1.8E1,4.1E1,5.7E1,2.3E1,4E0,4.1E1,2.1E1,4E0,3E0,2.3E1,1.4E1,1.6E1,2E0,2.6E1,1.5E1,4E1,1.7E1,2E0,2.1E1,2E0,2E0],"tree_param":{"num_deleted":"0","num_feature":"13","num_nodes":"31","size_leaf_vector":"1"}},{"base_weights":[-3.2544345E-1,-4.8360634E0,3.9904945E0,-7.6413264E0,-2.680318E0,6.2024255E0,8.633402E-1,-1.3598883E1,-2.9369802E0,3.8166947E0,-6.626572E0,9.908615E0,2.9779923E0,2.6189413E0,-7.5117216E0,-8.7212525E-2,-5.057833E-1,3.5947523E-1,-1.4978425E-1,-8.174425E-2,3.401778E-1,-3.812939E-1,-1.2267282E-1,3.3144656E-1,-2.1628417E-1,-1.8632749E-1,1.8144129E-1,-2.8815332E-1,1.2817135E-1,-3.9739236E-1,2.1953265E-1],"categories":[],"categories_nodes":[],"categories_segments":[],"categories_sizes":[],"default_left":[0,0,0,0,0,0,0,0,0,0,0,0,0,0,0,0,0,0,0,0,0,0,0,0,0,0,0,0,0,0,0],"id":22,"left_children":[1,3,5,7,9,11,13,15,17,19,21,23,25,27,29,-1,-1,-1,-1,-1,-1,-1,-1,-1,-1,-1,-1,-1,-1,-1,-1],"loss_changes":[5.099991E3,7.126279E2,9.108203E2,1.3936067E3,2.0500671E3,8.436052E2,9.2651105E2,6.5477344E2,1.2223237E3,1.6181674E3,6.0045166E2,9.21729E2,1.410371E3,1.1539069E3,1.2262692E3,0E0,0E0,0E0,0E0,0E0,0E0,0E0,0E0,0E0,0E0,0E0,0E0,0E0,0E0,0E0,0E0],"parents":[2147483647,0,0,1,1,2,2,3,3,4,4,5,5,6,6,7,7,8,8,9,9,10,10,11,11,12,12,13,13,14,14],"right_children":[2,4,6,8,10,12,14,16,18,20,22,24,26,28,30,-1,-1,-1,-1,-1,-1,-1,-1,-1,-1,-1,-1,-1,-1,-1,-1],"split_conditions":[4.072857E2,4.01E2,4.15E2,4.07E2,4.05E2,3E0,6E0,3.9864285E2,4.08E2,4.0357144E2,4.0014285E2,4.45E2,4.0607144E2,3.82E2,4.1164285E2,-8.7212525E-2,-5.057833E-1,3.5947523E-1,-1.4978425E-1,-8.174425E-2,3.401778E-1,-3.812939E-1,-1.2267282E-1,3.3144656E-1,-2.1628417E-1,-1.8632749E-1,1.8144129E-1,-2.8815332E-1,1.2817135E-1,-3.9739236E-1,2.1953265E-1],"split_indices":[3,1,1,2,2,6,6,4,2,3,4,0,4,0,4,0,0,0,0,0,0,0,0,0,0,0,0,0,0,0,0],"split_type":[0,0,0,0,0,0,0,0,0,0,0,0,0,0,0,0,0,0,0,0,0,0,0,0,0,0,0,0,0,0,0],"sum_hessian":[2.56E2,1.25E2,1.31E2,5.1E1,7.4E1,7.5E1,5.6E1,2E1,3.1E1,2.8E1,4.6E1,3.2E1,4.3E1,4.8E1,8E0,6E0,1.4E1,2E0,2.9E1,1.6E1,1.2E1,1E1,3.6E1,3.1E1,1E0,1E1,3.3E1,4E0,4.4E1,6E0,2E0],"tree_param":{"num_deleted":"0","num_feature":"13","num_nodes":"31","size_leaf_vector":"1"}},{"base_weights":[-4.815894E-1,-5.4263897E0,2.0126944E0,-7.151499E0,3.2434602E0,1.0908262E1,1.2354562E0,-8.517964E0,2.265808E0,9.561535E0,-5.559784E0,-1.98162E-1,1.377979E1,8.573559E0,4.5406258E-1,-4.318392E-1,-1.696865E-1,-1.8620491E-1,2.6489067E-1,3.0796388E-1,1.8916855E-2,-2.2942407E-1,2.0965394E-2,4.336917E-1,4.2454377E-2,-1.8843895E-1,3.612502E-1,4.9717944E-2,-1.8004383E-1],"categories":[],"categories_nodes":[],"categories_segments":[],"categories_sizes":[],"default_left":[0,0,0,0,0,0,0,0,0,0,0,0,0,0,0,0,0,0,0,0,0,0,0,0,0,0,0,0,0],"id":23,"left_children":[1,3,5,7,9,11,13,15,17,19,21,-1,23,25,27,-1,-1,-1,-1,-1,-1,-1,-1,-1,-1,-1,-1,-1,-1],"loss_changes":[3.313539E3,1.415666E3,1.1971715E3,1.0359006E3,1.1050126E3,9.771366E2,9.5162427E2,8.8251855E2,8.3177386E2,4.9735474E1,1.3362769E2,0E0,4.73833E1,1.0512057E3,1.2337697E3,0E0,0E0,0E0,0E0,0E0,0E0,0E0,0E0,0E0,0E0,0E0,0E0,0E0,0E0],"parents":[2147483647,0,0,1,1,2,2,3,3,4,4,5,5,6,6,7,7,8,8,9,9,10,10,12,12,13,13,14,14],"right_children":[2,4,6,8,10,12,14,16,18,20,22,-1,24,26,28,-1,-1,-1,-1,-1,-1,-1,-1,-1,-1,-1,-1,-1,-1],"split_conditions":[4.037143E2,4.22E2,3.75E2,4.08E2,4.0492856E2,3.94E2,3.78E2,-2.2252093E-1,4.01E2,4.44E2,7E0,-1.98162E-1,4.1042856E2,3.82E2,4.35E2,-4.318392E-1,-1.696865E-1,-1.8620491E-1,2.6489067E-1,3.0796388E-1,1.8916855E-2,-2.2942407E-1,2.0965394E-2,4.336917E-1,4.2454377E-2,-1.8843895E-1,3.612502E-1,4.9717944E-2,-1.8004383E-1],"split_indices":[3,1,1,4,4,0,2,10,2,1,7,0,4,0,0,0,0,0,0,0,0,0,0,0,0,0,0,0,0],"split_type":[0,0,0,0,0,0,0,0,0,0,0,0,0,0,0,0,0,0,0,0,0,0,0,0,0,0,0,0,0],"sum_hessian":[2.63E2,8.7E1,1.76E2,7.3E1,1.4E1,1.1E1,1.65E2,6.4E1,9E0,8E0,6E0,1E0,1E1,1.3E1,1.52E2,1.7E1,4.7E1,4E0,5E0,7E0,1E0,4E0,2E0,9E0,1E0,2E0,1.1E1,1.3E2,2.2E1],"tree_param":{"num_deleted":"0","num_feature":"13","num_nodes":"29","size_leaf_vector":"1"}},{"base_weights":[-4.140298E-1,-1.4459503E0,1.3229245E1,-6.2555914E0,7.2256315E-1,-5.559654E-2,1.4376029E1,-8.07739E0,-1.6799891E0,1.3562526E0,-9.095057E0,5.4580986E-1,5.8638244E0,-2.7879187E-1,1.2724195E-1,1.3655972E-1,-3.0265892E-1,8.028873E-3,2.091369E-1,1.9390887E-1,-4.4121256E-1,2.6959887E-1,-7.952875E-2],"categories":[],"categories_nodes":[],"categories_segments":[],"categories_sizes":[],"default_left":[0,0,0,0,0,0,0,0,0,0,0,0,0,0,0,0,0,0,0,0,0,0,0],"id":24,"left_children":[1,3,5,7,9,-1,11,13,15,17,19,-1,21,-1,-1,-1,-1,-1,-1,-1,-1,-1,-1],"loss_changes":[3.8023406E3,2.6210027E3,4.085559E2,6.094844E2,1.1257369E3,0E0,2.648833E2,9.41906E2,1.5002347E3,1.0152065E3,1.2456572E3,0E0,3.3736954E2,0E0,0E0,0E0,0E0,0E0,0E0,0E0,0E0,0E0,0E0],"parents":[2147483647,0,0,1,1,2,2,3,3,4,4,6,6,7,7,8,8,9,9,10,10,12,12],"right_children":[2,4,6,8,10,-1,12,14,16,18,20,-1,22,-1,-1,-1,-1,-1,-1,-1,-1,-1,-1],"split_conditions":[4.2042856E2,4.027143E2,4.075E2,4.19E2,4.192857E2,-5.559654E-2,6E0,4.08E2,4.0542856E2,4.1557144E2,-2.2252093E-1,5.4580986E-1,6E0,-2.7879187E-1,1.2724195E-1,1.3655972E-1,-3.0265892E-1,8.028873E-3,2.091369E-1,1.9390887E-1,-4.4121256E-1,2.6959887E-1,-7.952875E-2],"split_indices":[3,3,4,1,3,0,7,4,4,3,10,0,6,0,0,0,0,0,0,0,0,0,0],"split_type":[0,0,0,0,0,0,0,0,0,0,0,0,0,0,0,0,0,0,0,0,0,0,0],"sum_hessian":[2.63E2,2.47E2,1.6E1,7.5E1,1.72E2,1E0,1.5E1,5.2E1,2.3E1,1.64E2,8E0,8E0,7E0,4.8E1,4E0,1.4E1,9E0,1.4E2,2.4E1,2E0,6E0,5E0,2E0],"tree_param":{"num_deleted":"0","num_feature":"13","num_nodes":"23","size_leaf_vector":"1"}},{"base_weights":[-4.091299E-1,-6.725802E0,2.443587E0,-1.3838316E0,-1.0615535E1,4.9899206E-1,8.330532E0,-7.6134415E0,2.7691784E0,-1.5520407E-1,-1.2749305E1,-4.7145474E-1,1.2008265E1,1.0987566E1,-2.878726E0,-2.9415816E-1,9.2752434E-2,-1.2314681E-1,2.4518614E-1,1.4265975E-1,-1.1339699E-1,-5.0633305E-1,-8.304626E-2,1.1936494E-1,-4.5600448E-2,1.3076248E-2,3.9104223E-1,-1.4957E-1,3.851064E-1,3.2521287E-1,-2.862271E-1],"categories":[],"categories_nodes":[],"categories_segments":[],"categories_sizes":[],"default_left":[0,0,0,0,0,0,0,0,0,0,0,0,0,0,0,0,0,0,0,0,0,0,0,0,0,0,0,0,0,0,0],"id":25,"left_children":[1,3,5,7,9,11,13,15,17,19,21,23,25,27,29,-1,-1,-1,-1,-1,-1,-1,-1,-1,-1,-1,-1,-1,-1,-1,-1],"loss_changes":[4.7524414E3,1.6597944E3,2.0710151E3,1.046371E3,1.0431011E3,1.5806633E3,1.4351428E3,4.6636963E2,1.0292808E3,2.4971486E2,1.466894E3,6.3410754E2,1.13621826E2,1.2849634E3,1.3156765E3,0E0,0E0,0E0,0E0,0E0,0E0,0E0,0E0,0E0,0E0,0E0,0E0,0E0,0E0,0E0,0E0],"parents":[2147483647,0,0,1,1,2,2,3,3,4,4,5,5,6,6,7,7,8,8,9,9,10,10,11,11,12,12,13,13,14,14],"right_children":[2,4,6,8,10,12,14,16,18,20,22,24,26,28,30,-1,-1,-1,-1,-1,-1,-1,-1,-1,-1,-1,-1,-1,-1,-1,-1],"split_conditions":[4.0342856E2,3.99E2,4.1585715E2,3.85E2,-7.818315E-1,4.35E2,4.35E2,7.818315E-1,4.055E2,3.98E2,7.818315E-1,4.0542856E2,4E2,4.0807144E2,4.192857E2,-2.9415816E-1,9.2752434E-2,-1.2314681E-1,2.4518614E-1,1.4265975E-1,-1.1339699E-1,-5.0633305E-1,-8.304626E-2,1.1936494E-1,-4.5600448E-2,1.3076248E-2,3.9104223E-1,-1.4957E-1,3.851064E-1,3.2521287E-1,-2.862271E-1],"split_indices":[3,1,3,1,9,2,0,11,5,0,9,3,0,4,3,0,0,0,0,0,0,0,0,0,0,0,0,0,0,0,0],"split_type":[0,0,0,0,0,0,0,0,0,0,0,0,0,0,0,0,0,0,0,0,0,0,0,0,0,0,0,0,0,0,0],"sum_hessian":[2.58E2,7.9E1,1.79E2,3.5E1,4.4E1,1.37E2,4.2E1,1.3E1,2.2E1,8E0,3.6E1,1.29E2,8E0,3.4E1,8E0,1.1E1,2E0,1E1,1.2E1,3E0,5E0,2.4E1,1.2E1,2.3E1,1.06E2,1E0,7E0,3E0,3.1E1,2E0,6E0],"tree_param":{"num_deleted":"0","num_feature":"13","num_nodes":"31","size_leaf_vector":"1"}},{"base_weights":[-2.3188932E-1,-5.917902E0,3.299281E0,2.1185783E-1,-6.2701244E0,1.1018807E0,7.844696E0,-4.704289E-1,-5.469322E0,-2.7113658E-1,1.238264E1,1.2893733E1,-3.5608265E0,-5.1650006E-2,-2.223621E-1,3.306551E-1,-3.2331232E-2,4.3073052E-1,3.0088987E-2,4.0587568E-1,-7.010444E-2,1.4569214E-1,-2.695063E-1],"categories":[],"categories_nodes":[],"categories_segments":[],"categories_sizes":[],"default_left":[0,0,0,0,0,0,0,0,0,0,0,0,0,0,0,0,0,0,0,0,0,0,0],"id":26,"left_children":[1,3,5,-1,7,9,11,-1,13,15,17,19,21,-1,-1,-1,-1,-1,-1,-1,-1,-1,-1],"loss_changes":[5.138379E3,5.8087305E2,1.5521874E3,0E0,4.737207E2,1.7138267E3,3.0746692E3,0E0,6.461072E2,9.556023E2,2.2650378E2,4.432661E2,9.5248E2,0E0,0E0,0E0,0E0,0E0,0E0,0E0,0E0,0E0,0E0],"parents":[2147483647,0,0,1,1,2,2,4,4,5,5,6,6,8,8,9,9,10,10,11,11,12,12],"right_children":[2,4,6,-1,8,10,12,-1,14,16,18,20,22,-1,-1,-1,-1,-1,-1,-1,-1,-1,-1],"split_conditions":[4.05E2,3.55E2,4.1557144E2,2.1185783E-1,3.9607144E2,4.34E2,4.24E2,-4.704289E-1,4.0264285E2,4.0557144E2,8E0,4.207857E2,4.04E2,-5.1650006E-2,-2.223621E-1,3.306551E-1,-3.2331232E-2,4.3073052E-1,3.0088987E-2,4.0587568E-1,-7.010444E-2,1.4569214E-1,-2.695063E-1],"split_indices":[3,2,3,0,4,2,2,0,4,3,7,4,1,0,0,0,0,0,0,0,0,0,0],"split_type":[0,0,0,0,0,0,0,0,0,0,0,0,0,0,0,0,0,0,0,0,0,0,0],"sum_hessian":[2.5E2,9.5E1,1.55E2,1E0,9.4E1,1.07E2,4.8E1,3E0,9.1E1,9.8E1,9E0,3.3E1,1.5E1,3.3E1,5.8E1,4E0,9.4E1,7E0,2E0,3.2E1,1E0,6E0,9E0],"tree_param":{"num_deleted":"0","num_feature":"13","num_nodes":"23","size_leaf_vector":"1"}},{"base_weights":[-7.754185E-1,-3.3286107E0,3.8285165E0,-7.766301E0,-1.9600453E0,2.224444E0,1.367996E1,9.9021256E-1,-1.1190173E1,2.467254E0,-3.4933457E0,1.0289288E1,-3.2678887E-1,-5.228485E-2,1.5400899E1,-1.7990005E-1,1.3593543E-1,6.913864E-2,-3.9039546E-1,-2.0204577E-1,1.2584764E-1,2.085216E-1,-1.3416307E-1,4.697168E-2,3.2881016E-1,-7.807604E-2,2.515921E-1,1.6039751E-1,5.5269265E-1],"categories":[],"categories_nodes":[],"categories_segments":[],"categories_sizes":[],"default_left":[0,0,0,0,0,0,0,0,0,0,0,0,0,0,0,0,0,0,0,0,0,0,0,0,0,0,0,0,0],"id":27,"left_children":[1,3,5,7,9,11,13,15,17,19,21,23,25,-1,27,-1,-1,-1,-1,-1,-1,-1,-1,-1,-1,-1,-1,-1,-1],"loss_changes":[3.1884988E3,1.0110818E3,1.4415448E3,1.2324893E3,9.558649E2,1.800138E3,4.255652E2,4.2788046E2,8.0340454E2,6.729897E2,1.1461394E3,7.1450195E1,1.4336796E3,0E0,6.91311E1,0E0,0E0,0E0,0E0,0E0,0E0,0E0,0E0,0E0,0E0,0E0,0E0,0E0,0E0],"parents":[2147483647,0,0,1,1,2,2,3,3,4,4,5,5,6,6,7,7,8,8,9,9,10,10,11,11,12,12,14,14],"right_children":[2,4,6,8,10,12,14,16,18,20,22,24,26,-1,28,-1,-1,-1,-1,-1,-1,-1,-1,-1,-1,-1,-1,-1,-1],"split_conditions":[4.1057144E2,3.98E2,1E1,-2.2252093E-1,3.91E2,3.93E2,3.83E2,4.02E2,3.85E2,3.87E2,3.9914285E2,2E0,4.2042856E2,-5.228485E-2,4.087857E2,-1.7990005E-1,1.3593543E-1,6.913864E-2,-3.9039546E-1,-2.0204577E-1,1.2584764E-1,2.085216E-1,-1.3416307E-1,4.697168E-2,3.2881016E-1,-7.807604E-2,2.515921E-1,1.6039751E-1,5.5269265E-1],"split_indices":[3,3,7,12,0,1,1,1,2,1,3,7,3,0,5,0,0,0,0,0,0,0,0,0,0,0,0,0,0],"split_type":[0,0,0,0,0,0,0,0,0,0,0,0,0,0,0,0,0,0,0,0,0,0,0,0,0,0,0,0,0],"sum_hessian":[2.65E2,1.71E2,9.4E1,3.7E1,1.34E2,8.4E1,1E1,1.1E1,2.6E1,3.4E1,1E2,1.8E1,6.6E1,1E0,9E0,3E0,8E0,3E0,2.3E1,4E0,3E1,7E0,9.3E1,2E0,1.6E1,5.4E1,1.2E1,4E0,5E0],"tree_param":{"num_deleted":"0","num_feature":"13","num_nodes":"29","size_leaf_vector":"1"}},{"base_weights":[2.1611768E-1,-4.915826E0,2.7783632E0,1.4461975E-1,-8.669232E0,1.579763E0,1.0844178E1,-8.28074E0,4.64271E0,-1.0071836E1,-1.7096964E0,2.542035E0,-7.909849E0,-1.6972938E-1,1.2438215E1,2.112751E-1,-3.265309E-1,-2.3255462E-2,3.3219036E-1,-3.7130716E-1,-1.2448488E-1,-1.5529723E-1,1.8749633E-1,-2.9336005E-1,1.0175684E-1,1.5284592E-1,-3.730423E-1,4.44471E-1,4.0009722E-2],"categories":[],"categories_nodes":[],"categories_segments":[],"categories_sizes":[],"default_left":[0,0,0,0,0,0,0,0,0,0,0,0,0,0,0,0,0,0,0,0,0,0,0,0,0,0,0,0,0],"id":28,"left_children":[1,3,5,7,9,11,13,15,17,19,21,23,25,-1,27,-1,-1,-1,-1,-1,-1,-1,-1,-1,-1,-1,-1,-1,-1],"loss_changes":[3.4334932E3,1.6562319E3,1.6307839E3,1.6312563E3,4.3641382E2,1.4757175E3,7.89812E2,8.283992E2,1.00123376E3,4.056338E2,4.281974E2,1.5968389E3,1.0727344E3,0E0,4.9514233E2,0E0,0E0,0E0,0E0,0E0,0E0,0E0,0E0,0E0,0E0,0E0,0E0,0E0,0E0],"parents":[2147483647,0,0,1,1,2,2,3,3,4,4,5,5,6,6,7,7,8,8,9,9,10,10,11,11,12,12,14,14],"right_children":[2,4,6,8,10,12,14,16,18,20,22,24,26,-1,28,-1,-1,-1,-1,-1,-1,-1,-1,-1,-1,-1,-1,-1,-1],"split_conditions":[4.06E2,4.02E2,1E1,4.0139285E2,4.2E2,4.39E2,3.66E2,3.55E2,6.862974E-15,7.818315E-1,4.0542856E2,3.76E2,3.82E2,-1.6972938E-1,9.749279E-1,2.112751E-1,-3.265309E-1,-2.3255462E-2,3.3219036E-1,-3.7130716E-1,-1.2448488E-1,-1.5529723E-1,1.8749633E-1,-2.9336005E-1,1.0175684E-1,1.5284592E-1,-3.730423E-1,4.44471E-1,4.0009722E-2],"split_indices":[5,2,7,5,0,0,2,2,9,11,5,0,2,0,11,0,0,0,0,0,0,0,0,0,0,0,0,0,0],"split_type":[0,0,0,0,0,0,0,0,0,0,0,0,0,0,0,0,0,0,0,0,0,0,0,0,0,0,0,0,0],"sum_hessian":[2.55E2,8.4E1,1.71E2,3.7E1,4.7E1,1.52E2,1.9E1,1.2E1,2.5E1,3.8E1,9E0,1.4E2,1.2E1,1E0,1.8E1,1E0,1.1E1,1.5E1,1E1,2.5E1,1.3E1,7E0,2E0,7E0,1.33E2,3E0,9E0,1.4E1,4E0],"tree_param":{"num_deleted":"0","num_feature":"13","num_nodes":"29","size_leaf_vector":"1"}},{"base_weights":[8.538206E-2,-2.5357103E0,3.7104995E0,-3.2250323E0,6.4849677E0,2.795679E0,1.4554787E1,3.2183784E-1,-5.3173857E0,8.492542E0,-1.1698768E-1,1.1187191E0,6.0097904E0,3.3114396E-2,1.6003292E1,-1.2980041E-1,2.3273727E-1,-2.67988E-1,3.1536356E-2,2.671573E-1,3.2741547E-2,7.60099E-2,-2.6091063E-1,6.8962094E-3,3.031639E-1,5.166539E-1,6.5191954E-2],"categories":[],"categories_nodes":[],"categories_segments":[],"categories_sizes":[],"default_left":[0,0,0,0,0,0,0,0,0,0,0,0,0,0,0,0,0,0,0,0,0,0,0,0,0,0,0],"id":29,"left_children":[1,3,5,7,9,11,13,15,17,19,-1,21,23,-1,25,-1,-1,-1,-1,-1,-1,-1,-1,-1,-1,-1,-1],"loss_changes":[2.536693E3,1.026556E3,9.8903296E2,1.0886444E3,3.4952567E2,5.565534E2,1.0287659E2,2.0710005E3,2.1465608E3,4.4418945E0,0E0,1.0938715E3,8.4524634E2,0E0,5.692993E0,0E0,0E0,0E0,0E0,0E0,0E0,0E0,0E0,0E0,0E0,0E0,0E0],"parents":[2147483647,0,0,1,1,2,2,3,3,4,4,5,5,6,6,7,7,8,8,9,9,11,11,12,12,14,14],"right_children":[2,4,6,8,10,12,14,16,18,20,-1,22,24,-1,26,-1,-1,-1,-1,-1,-1,-1,-1,-1,-1,-1,-1],"split_conditions":[4.087143E2,4.1264285E2,9E0,4.0425E2,4.1E2,4.1317856E2,4.087857E2,4.032143E2,4.14E2,3.99E2,-1.1698768E-1,4.1216E2,4.1307144E2,3.3114396E-2,4.24E2,-1.2980041E-1,2.3273727E-1,-2.67988E-1,3.1536356E-2,2.671573E-1,3.2741547E-2,7.60099E-2,-2.6091063E-1,6.8962094E-3,3.031639E-1,5.166539E-1,6.5191954E-2],"split_indices":[5,4,7,5,2,5,5,4,2,2,0,5,4,0,2,0,0,0,0,0,0,0,0,0,0,0,0],"split_type":[0,0,0,0,0,0,0,0,0,0,0,0,0,0,0,0,0,0,0,0,0,0,0,0,0,0,0],"sum_hessian":[2.61E2,1.52E2,1.09E2,1.43E2,9E0,1.04E2,5E0,5.4E1,8.9E1,8E0,1E0,7.1E1,3.3E1,1E0,4E0,3.4E1,2E1,5.6E1,3.3E1,7E0,1E0,6.4E1,7E0,1.5E1,1.8E1,3E0,1E0],"tree_param":{"num_deleted":"0","num_feature":"13","num_nodes":"27","size_leaf_vector":"1"}},{"base_weights":[-4.5860854E-1,-2.0605006E0,7.023581E0,-5.1944737E0,2.0909876E-1,9.206438E0,-5.019202E0,-5.4845625E-1,-6.859005E0,-6.9344825E-1,7.0868063E0,1.0300752E1,-2.5103828E-1,1.157801E-1,-7.576271E0,-1.8878001E-1,5.9750974E-2,-3.2913136E-1,-1.262595E-1,-8.193267E-2,9.12973E-2,-1.4941522E-1,3.8499722E-1,3.5135275E-1,-3.5066787E-2,-2.4899977E-1,-1.8826675E-2],"categories":[],"categories_nodes":[],"categories_segments":[],"categories_sizes":[],"default_left":[0,0,0,0,0,0,0,0,0,0,0,0,0,0,0,0,0,0,0,0,0,0,0,0,0,0,0],"id":30,"left_children":[1,3,5,7,9,11,13,15,17,19,21,23,-1,-1,25,-1,-1,-1,-1,-1,-1,-1,-1,-1,-1,-1,-1],"loss_changes":[3.1237307E3,1.5254114E3,1.3478601E3,6.847241E2,8.030897E2,1.0278633E3,2.9204547E2,4.315614E2,5.8077246E2,9.005482E2,1.2319087E3,6.7223535E2,0E0,0E0,2.4605316E1,0E0,0E0,0E0,0E0,0E0,0E0,0E0,0E0,0E0,0E0,0E0,0E0],"parents":[2147483647,0,0,1,1,2,2,3,3,4,4,5,5,6,6,7,7,8,8,9,9,10,10,11,11,14,14],"right_children":[2,4,6,8,10,12,14,16,18,20,22,24,-1,-1,26,-1,-1,-1,-1,-1,-1,-1,-1,-1,-1,-1,-1],"split_conditions":[4.1557144E2,4.0357144E2,4.24E2,-2.2252093E-1,4.34E2,4.39E2,3.75E2,5E0,3.98E2,7.818315E-1,4.0642856E2,6E0,-2.5103828E-1,1.157801E-1,4.17E2,-1.8878001E-1,5.9750974E-2,-3.2913136E-1,-1.262595E-1,-8.193267E-2,9.12973E-2,-1.4941522E-1,3.8499722E-1,3.5135275E-1,-3.5066787E-2,-2.4899977E-1,-1.8826675E-2],"split_indices":[3,3,2,12,2,1,1,7,3,9,3,6,0,0,1,0,0,0,0,0,0,0,0,0,0,0,0],"split_type":[0,0,0,0,0,0,0,0,0,0,0,0,0,0,0,0,0,0,0,0,0,0,0,0,0,0,0],"sum_hessian":[2.54E2,2.11E2,4.3E1,8.7E1,1.24E2,3.7E1,6E0,2.4E1,6.3E1,1.12E2,1.2E1,3.6E1,1E0,1E0,5E0,6E0,1.8E1,2.1E1,4.2E1,7.3E1,3.9E1,4E0,8E0,3.2E1,4E0,4E0,1E0],"tree_param":{"num_deleted":"0","num_feature":"13","num_nodes":"27","size_leaf_vector":"1"}},{"base_weights":[3.7044212E-1,-1.3777726E0,2.779924E0,6.7908174E-1,-3.8399277E0,5.8603E0,-9.808891E-1,2.5321753E0,-8.722202E0,6.7744865E0,-4.951981E0,8.810917E0,-1.1591303E0,4.6473947E0,-4.8144608E0,-3.9520495E-2,2.7405068E-1,-3.940288E-1,-4.2081296E-2,3.5596368E-1,-2.1646728E-1,2.1112846E-1,-1.81981E-1,1.4400207E-1,4.1413054E-1,1.6352317E-1,-1.94539E-1,2.998062E-1,-2.100004E-1,-2.9318476E-1,-3.007861E-2],"categories":[],"categories_nodes":[],"categories_segments":[],"categories_sizes":[],"default_left":[0,0,0,0,0,0,0,0,0,0,0,0,0,0,0,0,0,0,0,0,0,0,0,0,0,0,0,0,0,0,0],"id":31,"left_children":[1,3,5,7,9,11,13,15,17,19,21,23,25,27,29,-1,-1,-1,-1,-1,-1,-1,-1,-1,-1,-1,-1,-1,-1,-1,-1],"loss_changes":[1.1235352E3,7.9278845E2,1.3147334E3,1.5819254E3,9.387108E2,1.314761E3,1.2106747E3,1.9424392E3,4.291433E2,8.2663226E2,1.0096356E3,6.824424E2,8.452609E2,1.642046E3,5.9432104E2,0E0,0E0,0E0,0E0,0E0,0E0,0E0,0E0,0E0,0E0,0E0,0E0,0E0,0E0,0E0,0E0],"parents":[2147483647,0,0,1,1,2,2,3,3,4,4,5,5,6,6,7,7,8,8,9,9,10,10,11,11,12,12,13,13,14,14],"right_children":[2,4,6,8,10,12,14,16,18,20,22,24,26,28,30,-1,-1,-1,-1,-1,-1,-1,-1,-1,-1,-1,-1,-1,-1,-1,-1],"split_conditions":[4.087857E2,6.234898E-1,6.234898E-1,4.080357E2,3.7E2,4.24E2,5E0,4.0592856E2,6.234898E-1,4.0725E2,4.0082144E2,7E0,4.04E2,4.29E2,-5.8783045E-15,-3.9520495E-2,2.7405068E-1,-3.940288E-1,-4.2081296E-2,3.5596368E-1,-2.1646728E-1,2.1112846E-1,-1.81981E-1,1.4400207E-1,4.1413054E-1,1.6352317E-1,-1.94539E-1,2.998062E-1,-2.100004E-1,-2.9318476E-1,-3.007861E-2],"split_indices":[5,12,10,5,1,2,7,5,10,5,5,7,1,1,9,0,0,0,0,0,0,0,0,0,0,0,0,0,0,0,0],"split_type":[0,0,0,0,0,0,0,0,0,0,0,0,0,0,0,0,0,0,0,0,0,0,0,0,0,0,0,0,0,0,0],"sum_hessian":[2.61E2,1.52E2,1.09E2,8.4E1,6.8E1,5.9E1,5E1,7.2E1,1.2E1,5E0,6.3E1,4.1E1,1.8E1,2E1,3E1,4.7E1,2.5E1,6E0,6E0,4E0,1E0,4E0,5.9E1,2.6E1,1.5E1,8E0,1E1,1.4E1,6E0,1.1E1,1.9E1],"tree_param":{"num_deleted":"0","num_feature":"13","num_nodes":"31","size_leaf_vector":"1"}},{"base_weights":[2.7284443E-1,-1.3542994E0,6.8580785E0,-8.014387E0,-1.0155006E-1,9.844517E0,-1.8939075E0,-2.5873775E0,-1.363464E1,2.0748494E0,-2.6540115E0,-8.0513656E-1,1.1094906E1,2.9405808E-1,-6.8549337E0,1.0968063E-1,-2.4551797E-1,3.3025056E-2,-5.186752E-1,-2.1127714E-2,2.3596549E-1,1.1129031E-1,-1.2137895E-1,1.034404E-1,-1.9743027E-1,1.0751788E-1,3.761145E-1,1.1837479E-1,-3.3836728E-1],"categories":[],"categories_nodes":[],"categories_segments":[],"categories_sizes":[],"default_left":[0,0,0,0,0,0,0,0,0,0,0,0,0,0,0,0,0,0,0,0,0,0,0,0,0,0,0,0,0],"id":32,"left_children":[1,3,5,7,9,11,13,15,17,19,21,23,25,-1,27,-1,-1,-1,-1,-1,-1,-1,-1,-1,-1,-1,-1,-1,-1],"loss_changes":[2.8673708E3,1.7913939E3,1.4412092E3,9.3120557E2,1.0386724E3,5.5944727E2,1.129949E3,8.235338E2,9.18718E2,1.641999E3,8.068123E2,2.4003375E2,2.5517822E2,0E0,7.546837E2,0E0,0E0,0E0,0E0,0E0,0E0,0E0,0E0,0E0,0E0,0E0,0E0,0E0,0E0],"parents":[2147483647,0,0,1,1,2,2,3,3,4,4,5,5,6,6,7,7,8,8,9,9,10,10,11,11,12,12,14,14],"right_children":[2,4,6,8,10,12,14,16,18,20,22,24,26,-1,28,-1,-1,-1,-1,-1,-1,-1,-1,-1,-1,-1,-1,-1,-1],"split_conditions":[4.1557144E2,3.98E2,4.35E2,3.98E2,4.082143E2,4.0807144E2,4.192857E2,3.9642856E2,3.91E2,4.055E2,3.93E2,4.1E2,4.06E2,2.9405808E-1,4.04E2,1.0968063E-1,-2.4551797E-1,3.3025056E-2,-5.186752E-1,-2.1127714E-2,2.3596549E-1,1.1129031E-1,-1.2137895E-1,1.034404E-1,-1.9743027E-1,1.0751788E-1,3.761145E-1,1.1837479E-1,-3.3836728E-1],"split_indices":[3,3,0,0,4,4,3,3,1,4,1,1,0,0,1,0,0,0,0,0,0,0,0,0,0,0,0,0,0],"split_type":[0,0,0,0,0,0,0,0,0,0,0,0,0,0,0,0,0,0,0,0,0,0,0,0,0,0,0,0,0],"sum_hessian":[2.62E2,2.12E2,5E1,3.1E1,1.81E2,3.7E1,1.3E1,1.8E1,1.3E1,9.8E1,8.3E1,4E0,3.3E1,3E0,1E1,9E0,9E0,3E0,1E1,6.8E1,3E1,1.4E1,6.9E1,3E0,1E0,7E0,2.6E1,3E0,7E0],"tree_param":{"num_deleted":"0","num_feature":"13","num_nodes":"29","size_leaf_vector":"1"}},{"base_weights":[-1.3403285E-1,-4.389492E0,3.6309536E0,-1.1110905E1,-2.491258E0,2.1423056E0,1.1618807E1,1.4571212E-1,-1.3827215E1,-1.1442059E0,-1.2955616E1,2.9935462E0,-1.0897644E1,1.4697639E1,1.1040878E0,1.1708152E-1,-4.5495927E-1,-2.4509004E-1,1.0227672E-2,4.9289472E-2,-4.472511E-1,3.6754292E-1,6.1595414E-2,6.398804E-2,-4.101981E-1,3.14165E-2,4.9269888E-1,-1.7212701E-1,1.876027E-1],"categories":[],"categories_nodes":[],"categories_segments":[],"categories_sizes":[],"default_left":[0,0,0,0,0,0,0,0,0,0,0,0,0,0,0,0,0,0,0,0,0,0,0,0,0,0,0,0,0],"id":33,"left_children":[1,3,5,7,9,11,13,-1,15,17,19,21,23,25,27,-1,-1,-1,-1,-1,-1,-1,-1,-1,-1,-1,-1,-1,-1],"loss_changes":[4.165403E3,1.4735354E3,1.5662987E3,1.3292026E3,1.3510356E3,1.4298842E3,6.3115186E2,0E0,7.232173E2,9.5782355E2,3.8706482E2,9.2570337E2,3.768366E2,3.2529907E2,3.894781E2,0E0,0E0,0E0,0E0,0E0,0E0,0E0,0E0,0E0,0E0,0E0,0E0,0E0,0E0],"parents":[2147483647,0,0,1,1,2,2,3,3,4,4,5,5,6,6,8,8,9,9,10,10,11,11,12,12,13,13,14,14],"right_children":[2,4,6,8,10,12,14,-1,16,18,20,22,24,26,28,-1,-1,-1,-1,-1,-1,-1,-1,-1,-1,-1,-1,-1,-1],"split_conditions":[4.072857E2,3.9742856E2,4.2042856E2,3.85E2,4.1192856E2,4.192857E2,4.35E2,1.4571212E-1,3.8E2,4.0042856E2,3.87E2,4.0414285E2,3.84E2,3.79E2,3.98E2,1.1708152E-1,-4.5495927E-1,-2.4509004E-1,1.0227672E-2,4.9289472E-2,-4.472511E-1,3.6754292E-1,6.1595414E-2,6.398804E-2,-4.101981E-1,3.14165E-2,4.9269888E-1,-1.7212701E-1,1.876027E-1],"split_indices":[3,3,3,2,5,3,0,0,1,4,0,4,0,2,2,0,0,0,0,0,0,0,0,0,0,0,0,0,0],"split_type":[0,0,0,0,0,0,0,0,0,0,0,0,0,0,0,0,0,0,0,0,0,0,0,0,0,0,0,0,0],"sum_hessian":[2.54E2,1.19E2,1.35E2,2.3E1,9.6E1,1.17E2,1.8E1,3E0,2E1,8.8E1,8E0,1.12E2,5E0,1.3E1,5E0,1E0,1.9E1,1.3E1,7.5E1,1E0,7E0,7E0,1.05E2,1E0,4E0,2E0,1.1E1,2E0,3E0],"tree_param":{"num_deleted":"0","num_feature":"13","num_nodes":"29","size_leaf_vector":"1"}},{"base_weights":[3.7832403E-1,-3.9675765E0,3.2683156E0,-1.1287764E0,-7.7617054E0,5.438318E0,8.8914764E-1,1.1783972E0,-8.1270485E0,2.9312973E0,-9.358088E0,6.938453E0,-4.009728E0,1.0121456E1,-3.019388E-1,-4.047754E-2,2.8559792E-1,4.4291247E-2,-3.509185E-1,-2.3772353E-2,1.14085816E-1,-3.0680677E-1,1.774237E-1,1.1333789E-1,3.6901394E-1,-2.3644978E-1,8.0607735E-2,3.4363404E-2,3.2441744E-1,-1.0099725E-1,1.08778685E-1],"categories":[],"categories_nodes":[],"categories_segments":[],"categories_sizes":[],"default_left":[0,0,0,0,0,0,0,0,0,0,0,0,0,0,0,0,0,0,0,0,0,0,0,0,0,0,0,0,0,0,0],"id":34,"left_children":[1,3,5,7,9,11,13,15,17,19,21,23,25,27,29,-1,-1,-1,-1,-1,-1,-1,-1,-1,-1,-1,-1,-1,-1,-1,-1],"loss_changes":[3.2667231E3,1.0938768E3,7.9089026E2,1.0459431E3,8.333794E2,1.2315054E3,8.668934E2,1.0927576E3,6.0039246E2,3.500389E1,6.989236E2,1.0638093E3,4.00609E2,1.8779419E1,9.033262E2,0E0,0E0,0E0,0E0,0E0,0E0,0E0,0E0,0E0,0E0,0E0,0E0,0E0,0E0,0E0,0E0],"parents":[2147483647,0,0,1,1,2,2,3,3,4,4,5,5,6,6,7,7,8,8,9,9,10,10,11,11,12,12,13,13,14,14],"right_children":[2,4,6,8,10,12,14,16,18,20,22,24,26,28,30,-1,-1,-1,-1,-1,-1,-1,-1,-1,-1,-1,-1,-1,-1,-1,-1],"split_conditions":[4.05E2,3.431487E-15,4.16E2,4.082143E2,3.73E2,6E0,3.79E2,4.17E2,-7.818315E-1,3.92E2,4.37E2,4.05E2,4.1025E2,4.19E2,4.1164285E2,-4.047754E-2,2.8559792E-1,4.4291247E-2,-3.509185E-1,-2.3772353E-2,1.14085816E-1,-3.0680677E-1,1.774237E-1,1.1333789E-1,3.6901394E-1,-2.3644978E-1,8.0607735E-2,3.4363404E-2,3.2441744E-1,-1.0099725E-1,1.08778685E-1],"split_indices":[3,9,0,4,0,6,1,1,9,3,1,0,5,0,4,0,0,0,0,0,0,0,0,0,0,0,0,0,0,0,0],"split_type":[0,0,0,0,0,0,0,0,0,0,0,0,0,0,0,0,0,0,0,0,0,0,0,0,0,0,0,0,0,0,0],"sum_hessian":[2.54E2,1.01E2,1.53E2,6E1,4.1E1,7.8E1,7.5E1,4.7E1,1.3E1,5E0,3.6E1,6.8E1,1E1,6E0,6.9E1,3.8E1,9E0,4E0,9E0,1E0,4E0,3.5E1,1E0,4.6E1,2.2E1,6E0,4E0,1E0,5E0,3.9E1,3E1],"tree_param":{"num_deleted":"0","num_feature":"13","num_nodes":"31","size_leaf_vector":"1"}},{"base_weights":[-3.5798362E-1,-1.177255E1,1.0975711E0,8.5118406E-2,-1.2569848E1,-5.1854026E-1,6.9904385E0,-1.4296519E0,-1.3690296E1,9.740261E0,-1.5118966E0,1.0323221E1,-1.4968729E0,-7.266174E-2,2.6492843E-2,-2.4032593E-2,-4.3992782E-1,-2.1198577E-1,4.018308E-1,-3.1072447E-1,-1.8139804E-2,3.956376E-1,-4.1035216E-2,-1.3728273E-1,1.930922E-1],"categories":[],"categories_nodes":[],"categories_segments":[],"categories_sizes":[],"default_left":[0,0,0,0,0,0,0,0,0,0,0,0,0,0,0,0,0,0,0,0,0,0,0,0,0],"id":35,"left_children":[1,3,5,-1,7,9,11,13,15,17,19,21,23,-1,-1,-1,-1,-1,-1,-1,-1,-1,-1,-1,-1],"loss_changes":[4.408384E3,4.5644482E2,2.2584277E3,0E0,3.0326123E2,1.9600201E3,1.4889622E3,2.0187824E1,2.9115234E2,1.3279529E3,1.3775685E3,1.2932979E3,5.0364188E2,0E0,0E0,0E0,0E0,0E0,0E0,0E0,0E0,0E0,0E0,0E0,0E0],"parents":[2147483647,0,0,1,1,2,2,4,4,5,5,6,6,7,7,8,8,9,9,10,10,11,11,12,12],"right_children":[2,4,6,-1,8,10,12,14,16,18,20,22,24,-1,-1,-1,-1,-1,-1,-1,-1,-1,-1,-1,-1],"split_conditions":[4.0042856E2,3.55E2,4.1557144E2,8.5118406E-2,3.82E2,4.022143E2,4.24E2,4.17E2,4E0,4.03E2,3.98E2,4.35E2,8E0,-7.266174E-2,2.6492843E-2,-2.4032593E-2,-4.3992782E-1,-2.1198577E-1,4.018308E-1,-3.1072447E-1,-1.8139804E-2,3.956376E-1,-4.1035216E-2,-1.3728273E-1,1.930922E-1],"split_indices":[4,1,3,0,2,4,2,0,7,2,3,0,7,0,0,0,0,0,0,0,0,0,0,0,0],"split_type":[0,0,0,0,0,0,0,0,0,0,0,0,0,0,0,0,0,0,0,0,0,0,0,0,0],"sum_hessian":[2.6E2,2.7E1,2.33E2,1E0,2.6E1,1.85E2,4.8E1,3E0,2.3E1,1.4E1,1.71E2,3.4E1,1.4E1,2E0,1E0,2E0,2.1E1,2E0,1.2E1,1.3E1,1.58E2,2.7E1,7E0,1.1E1,3E0],"tree_param":{"num_deleted":"0","num_feature":"13","num_nodes":"25","size_leaf_vector":"1"}},{"base_weights":[3.30839E-1,7.0609033E-1,-7.135073E0,1.1213025E0,-8.847626E0,-1.19371605E1,3.4266663E-1,-4.2687944E-1,3.0752091E0,-4.27653E-2,-3.6400235E-1,-3.8124245E-1,-4.9055327E-2,-1.02567255E-1,9.917938E-2,-9.1170296E-2,1.1851161E-1,5.9828352E-2,3.017988E-1,-1.3191238E-1,1.0399035E-1],"categories":[],"categories_nodes":[],"categories_segments":[],"categories_sizes":[],"default_left":[0,0,0,0,0,0,0,0,0,0,0,0,0,0,0,0,0,0,0,0,0],"id":36,"left_children":[1,3,5,7,9,11,13,15,17,19,-1,-1,-1,-1,-1,-1,-1,-1,-1,-1,-1],"loss_changes":[7.603378E2,1.0452682E3,4.7908533E2,7.541389E2,3.1668298E2,1.196167E0,1.2308232E2,1.6482085E3,7.703164E2,1.37404E2,0E0,0E0,0E0,0E0,0E0,0E0,0E0,0E0,0E0,0E0,0E0],"parents":[2147483647,0,0,1,1,2,2,3,3,4,4,5,5,6,6,7,7,8,8,9,9],"right_children":[2,4,6,8,10,12,14,16,18,20,-1,-1,-1,-1,-1,-1,-1,-1,-1,-1,-1],"split_conditions":[4.45E2,4.45E2,6E0,4.3388373E-1,3E0,4.52E2,3.98E2,4.087143E2,1.1E1,4.48E2,-3.6400235E-1,-3.8124245E-1,-4.9055327E-2,-1.02567255E-1,9.917938E-2,-9.1170296E-2,1.1851161E-1,5.9828352E-2,3.017988E-1,-1.3191238E-1,1.0399035E-1],"split_indices":[0,2,7,11,6,0,2,5,7,2,0,0,0,0,0,0,0,0,0,0,0],"split_type":[0,0,0,0,0,0,0,0,0,0,0,0,0,0,0,0,0,0,0,0,0],"sum_hessian":[2.63E2,2.53E2,1E1,2.45E2,8E0,5E0,5E0,1.38E2,1.07E2,3E0,5E0,4E0,1E0,2E0,3E0,8.7E1,5.1E1,9.6E1,1.1E1,1E0,2E0],"tree_param":{"num_deleted":"0","num_feature":"13","num_nodes":"21","size_leaf_vector":"1"}},{"base_weights":[-1.0852745E-1,-6.2720327E0,1.7608458E0,-7.743557E-1,-8.962794E0,1.0314327E0,8.469826E0,-3.9242294E0,3.0337203E-1,1.4126587E-1,-1.2430673E1,5.7061863E0,-1.980566E-1,1.0952933E1,9.4820404E-1,-2.0006195E-1,1.2092193E-1,1.2524699E-1,-1.334864E-1,-2.9027876E-2,-4.997799E-1,3.2923117E-1,-5.92925E-2,-2.241643E-1,2.7768126E-2,2.5174988E-2,3.7286305E-1,-1.7194408E-1,1.812149E-1],"categories":[],"categories_nodes":[],"categories_segments":[],"categories_sizes":[],"default_left":[0,0,0,0,0,0,0,0,0,0,0,0,0,0,0,0,0,0,0,0,0,0,0,0,0,0,0,0,0],"id":37,"left_children":[1,3,5,7,9,11,13,15,-1,17,19,21,23,25,27,-1,-1,-1,-1,-1,-1,-1,-1,-1,-1,-1,-1,-1,-1],"loss_changes":[2.9712148E3,8.667551E2,9.42728E2,9.0776404E2,1.2681389E3,1.0494463E3,3.2370605E2,5.172877E2,0E0,3.1497644E2,1.3573711E3,1.6030585E3,1.2222689E3,1.7767834E2,3.7598163E2,0E0,0E0,0E0,0E0,0E0,0E0,0E0,0E0,0E0,0E0,0E0,0E0,0E0,0E0],"parents":[2147483647,0,0,1,1,2,2,3,3,4,4,5,5,6,6,7,7,9,9,10,10,11,11,12,12,13,13,14,14],"right_children":[2,4,6,8,10,12,14,16,-1,18,20,22,24,26,28,-1,-1,-1,-1,-1,-1,-1,-1,-1,-1,-1,-1,-1,-1],"split_conditions":[4.007143E2,3.99E2,4.2042856E2,6E0,-2.2252093E-1,4.0414285E2,4.35E2,3.93E2,3.0337203E-1,3.98E2,3.82E2,4.08E2,4.057857E2,3.79E2,3.98E2,-2.0006195E-1,1.2092193E-1,1.2524699E-1,-1.334864E-1,-2.9027876E-2,-4.997799E-1,3.2923117E-1,-5.92925E-2,-2.241643E-1,2.7768126E-2,2.5174988E-2,3.7286305E-1,-1.7194408E-1,1.812149E-1],"split_indices":[3,1,3,6,12,4,0,1,0,0,0,0,4,2,2,0,0,0,0,0,0,0,0,0,0,0,0,0,0],"split_type":[0,0,0,0,0,0,0,0,0,0,0,0,0,0,0,0,0,0,0,0,0,0,0,0,0,0,0,0,0],"sum_hessian":[2.52E2,5.7E1,1.95E2,2E1,3.7E1,1.79E2,1.6E1,1.7E1,3E0,1.1E1,2.6E1,3.5E1,1.44E2,1.1E1,5E0,1.3E1,4E0,6E0,5E0,8E0,1.8E1,2E1,1.5E1,1.7E1,1.27E2,2E0,9E0,2E0,3E0],"tree_param":{"num_deleted":"0","num_feature":"13","num_nodes":"29","size_leaf_vector":"1"}},{"base_weights":[2.3105583E-1,-1.8678526E0,3.4534807E0,-2.997106E-1,-4.8452306E0,4.463083E0,-4.6436768E0,-3.819988E0,3.0510633E0,8.444031E-1,-8.715083E0,1.8307842E0,8.197724E0,3.7241254E0,-9.604075E0,1.7614895E-1,-1.550525E-1,-1.3546813E-2,3.8846165E-1,-9.636017E-2,2.064932E-1,6.6656984E-2,-2.8907153E-1,-7.468379E-2,1.6382782E-1,3.635202E-1,-3.3545703E-2,1.6985703E-1,-5.926895E-2,6.886341E-2,-4.1963103E-1],"categories":[],"categories_nodes":[],"categories_segments":[],"categories_sizes":[],"default_left":[0,0,0,0,0,0,0,0,0,0,0,0,0,0,0,0,0,0,0,0,0,0,0,0,0,0,0,0,0,0,0],"id":38,"left_children":[1,3,5,7,9,11,13,15,17,19,21,23,25,27,29,-1,-1,-1,-1,-1,-1,-1,-1,-1,-1,-1,-1,-1,-1,-1,-1],"loss_changes":[1.7846448E3,7.426758E2,9.123656E2,1.3088956E3,1.2330695E3,8.790602E2,6.4689954E2,7.9673773E2,1.9936047E3,6.787119E2,3.965044E2,9.6608746E2,1.4282112E3,1.1087144E2,5.657916E2,0E0,0E0,0E0,0E0,0E0,0E0,0E0,0E0,0E0,0E0,0E0,0E0,0E0,0E0,0E0,0E0],"parents":[2147483647,0,0,1,1,2,2,3,3,4,4,5,5,6,6,7,7,8,8,9,9,10,10,11,11,12,12,13,13,14,14],"right_children":[2,4,6,8,10,12,14,16,18,20,22,24,26,28,30,-1,-1,-1,-1,-1,-1,-1,-1,-1,-1,-1,-1,-1,-1,-1,-1],"split_conditions":[4.1057144E2,4.13E2,4.42E2,4.06E2,4.0564285E2,4.162857E2,4.07E2,3.927143E2,4.04E2,4.032143E2,3.75E2,4.0885715E2,4.140357E2,4.49E2,4.097857E2,1.7614895E-1,-1.550525E-1,-1.3546813E-2,3.8846165E-1,-9.636017E-2,2.064932E-1,6.6656984E-2,-2.8907153E-1,-7.468379E-2,1.6382782E-1,3.635202E-1,-3.3545703E-2,1.6985703E-1,-5.926895E-2,6.886341E-2,-4.1963103E-1],"split_indices":[3,0,0,5,5,3,1,3,0,4,1,5,5,0,4,0,0,0,0,0,0,0,0,0,0,0,0,0,0,0,0],"split_type":[0,0,0,0,0,0,0,0,0,0,0,0,0,0,0,0,0,0,0,0,0,0,0,0,0,0,0,0,0,0,0],"sum_hessian":[2.58E2,1.57E2,1.01E2,1.05E2,5.2E1,9.1E1,1E1,5.1E1,5.4E1,2.2E1,3E1,5.6E1,3.5E1,4E0,6E0,5E0,4.6E1,4.2E1,1.2E1,1.4E1,8E0,2E0,2.8E1,2.6E1,3E1,2.4E1,1.1E1,3E0,1E0,2E0,4E0],"tree_param":{"num_deleted":"0","num_feature":"13","num_nodes":"31","size_leaf_vector":"1"}},{"base_weights":[-4.0257826E-1,-5.517129E0,3.6427456E-1,4.605441E0,-8.904101E0,1.0605291E0,-9.131226E0,-6.709464E-1,2.5375518E-1,6.886017E-1,-1.2749364E1,-4.4287095E0,1.8011335E0,1.0567077E-1,-1.3175212E1,-4.886963E-2,3.8079757E-2,-1.3215958E-1,1.4279114E-1,-4.380054E-1,2.4685912E-2,-3.2453382E-1,1.4608207E-2,2.068453E-4,1.7733584E-1,-4.340649E-1,7.909469E-3],"categories":[],"categories_nodes":[],"categories_segments":[],"categories_sizes":[],"default_left":[0,0,0,0,0,0,0,0,0,0,0,0,0,0,0,0,0,0,0,0,0,0,0,0,0,0,0],"id":39,"left_children":[1,3,5,7,9,11,13,15,-1,17,19,21,23,-1,25,-1,-1,-1,-1,-1,-1,-1,-1,-1,-1,-1,-1],"loss_changes":[9.6302344E2,1.2201377E3,1.4504781E3,2.2032823E2,9.48499E2,8.491969E2,9.0678735E2,1.9215166E1,0E0,2.702828E2,4.8819653E2,8.0096533E2,1.3346497E3,0E0,2.2006128E2,0E0,0E0,0E0,0E0,0E0,0E0,0E0,0E0,0E0,0E0,0E0,0E0],"parents":[2147483647,0,0,1,1,2,2,3,3,4,4,5,5,6,6,7,7,9,9,10,10,11,11,12,12,14,14],"right_children":[2,4,6,8,10,12,14,16,-1,18,20,22,24,-1,26,-1,-1,-1,-1,-1,-1,-1,-1,-1,-1,-1,-1],"split_conditions":[4.002857E2,3.78E2,4.39E2,3E0,3.96E2,3.82E2,-2.2252093E-1,3.76E2,2.5375518E-1,2E0,4.22E2,6.234898E-1,4.19E2,1.0567077E-1,4.1664285E2,-4.886963E-2,3.8079757E-2,-1.3215958E-1,1.4279114E-1,-4.380054E-1,2.4685912E-2,-3.2453382E-1,1.4608207E-2,2.068453E-4,1.7733584E-1,-4.340649E-1,7.909469E-3],"split_indices":[4,0,1,6,1,0,10,0,0,6,1,10,1,0,4,0,0,0,0,0,0,0,0,0,0,0,0],"split_type":[0,0,0,0,0,0,0,0,0,0,0,0,0,0,0,0,0,0,0,0,0,0,0,0,0,0,0],"sum_hessian":[2.41E2,2.9E1,2.12E2,7E0,2.2E1,2E2,1.2E1,4E0,3E0,7E0,1.5E1,2.2E1,1.78E2,3E0,9E0,3E0,1E0,3E0,4E0,1.3E1,2E0,8E0,1.4E1,1.26E2,5.2E1,8E0,1E0],"tree_param":{"num_deleted":"0","num_feature":"13","num_nodes":"27","size_leaf_vector":"1"}},{"base_weights":[3.1403294E-1,-2.9442137E-1,8.374418E0,1.9817181E-1,-4.3961814E-1,1.0709446E1,-1.6503601E0,-2.5754924E0,1.7923061E0,-1.6783904E-3,1.1490392E1,5.206787E-2,-1.3935104E-1,-1.5319161E-1,7.381335E-3,1.6345407E-1,-5.149753E-4,7.443237E-4,3.70999E-1],"categories":[],"categories_nodes":[],"categories_segments":[],"categories_sizes":[],"default_left":[0,0,0,0,0,0,0,0,0,0,0,0,0,0,0,0,0,0,0],"id":40,"left_children":[1,3,5,7,-1,9,11,13,15,-1,17,-1,-1,-1,-1,-1,-1,-1,-1],"loss_changes":[1.258013E3,1.706328E3,4.7436975E2,1.0529226E3,0E0,1.2803638E2,8.502472E1,6.250373E2,9.992549E2,0E0,1.397323E2,0E0,0E0,0E0,0E0,0E0,0E0,0E0,0E0],"parents":[2147483647,0,0,1,1,2,2,3,3,5,5,6,6,7,7,8,8,10,10],"right_children":[2,4,6,8,-1,10,12,14,16,-1,18,-1,-1,-1,-1,-1,-1,-1,-1],"split_conditions":[4.2042856E2,4.192857E2,6E0,4.0314285E2,-4.3961814E-1,4.077143E2,4.39E2,4E0,4.072857E2,-1.6783904E-3,3.79E2,5.206787E-2,-1.3935104E-1,-1.5319161E-1,7.381335E-3,1.6345407E-1,-5.149753E-4,7.443237E-4,3.70999E-1],"split_indices":[3,3,6,3,0,4,0,6,4,0,2,0,0,0,0,0,0,0,0],"split_type":[0,0,0,0,0,0,0,0,0,0,0,0,0,0,0,0,0,0,0],"sum_hessian":[2.52E2,2.37E2,1.5E1,2.32E2,5E0,1.2E1,3E0,8.4E1,1.48E2,1E0,1.1E1,2E0,1E0,4.3E1,4.1E1,4.7E1,1.01E2,1E0,1E1],"tree_param":{"num_deleted":"0","num_feature":"13","num_nodes":"19","size_leaf_vector":"1"}},{"base_weights":[-6.32668E-1,-2.116997E0,4.9674582E0,-6.7541504E0,-1.0081118E0,7.1176467E0,-1.7425709E0,-2.5813487E0,-1.0160778E1,5.8107173E-1,-2.7523255E0,-2.3706632E0,8.848508E0,2.8492552E-1,-6.5281725E0,-2.6898277E-1,8.965144E-2,2.5290985E-2,-4.1272613E-1,-4.0521987E-2,2.3504306E-1,-4.157087E-1,-4.522591E-2,-2.6913235E-1,2.4876946E-1,8.960803E-2,3.391089E-1,1.7574774E-1,-3.1133872E-1],"categories":[],"categories_nodes":[],"categories_segments":[],"categories_sizes":[],"default_left":[0,0,0,0,0,0,0,0,0,0,0,0,0,0,0,0,0,0,0,0,0,0,0,0,0,0,0,0,0],"id":41,"left_children":[1,3,5,7,9,11,13,15,17,19,21,23,25,-1,27,-1,-1,-1,-1,-1,-1,-1,-1,-1,-1,-1,-1,-1,-1],"loss_changes":[2.2177173E3,1.059408E3,8.4516736E2,4.8992188E2,4.8433243E2,7.6911694E2,1.0466537E3,8.627309E2,8.6593335E2,1.3349315E3,1.0846389E3,8.565938E2,4.311731E2,0E0,8.022966E2,0E0,0E0,0E0,0E0,0E0,0E0,0E0,0E0,0E0,0E0,0E0,0E0,0E0,0E0],"parents":[2147483647,0,0,1,1,2,2,3,3,4,4,5,5,6,6,7,7,8,8,9,9,10,10,11,11,12,12,14,14],"right_children":[2,4,6,8,10,12,14,16,18,20,22,24,26,-1,28,-1,-1,-1,-1,-1,-1,-1,-1,-1,-1,-1,-1,-1,-1],"split_conditions":[4.1557144E2,3.98E2,4.35E2,6.234898E-1,4.903539E-15,-7.818315E-1,4.192857E2,5E0,3.73E2,-5.8783045E-15,4.3388373E-1,4.21E2,4.03E2,2.8492552E-1,-7.818315E-1,-2.6898277E-1,8.965144E-2,2.5290985E-2,-4.1272613E-1,-4.0521987E-2,2.3504306E-1,-4.157087E-1,-4.522591E-2,-2.6913235E-1,2.4876946E-1,8.960803E-2,3.391089E-1,1.7574774E-1,-3.1133872E-1],"split_indices":[3,3,0,12,9,11,3,7,0,9,9,0,0,0,9,0,0,0,0,0,0,0,0,0,0,0,0,0,0],"split_type":[0,0,0,0,0,0,0,0,0,0,0,0,0,0,0,0,0,0,0,0,0,0,0,0,0,0,0,0,0],"sum_hessian":[2.6E2,2.07E2,5.3E1,3.7E1,1.7E2,4E1,1.3E1,1.9E1,1.8E1,9E1,8E1,6E0,3.4E1,3E0,1E1,8E0,1.1E1,5E0,1.3E1,7.3E1,1.7E1,5E0,7.5E1,4E0,2E0,1.2E1,2.2E1,2E0,8E0],"tree_param":{"num_deleted":"0","num_feature":"13","num_nodes":"29","size_leaf_vector":"1"}},{"base_weights":[-1.4517167E-1,-3.973127E0,2.3398387E0,-1.1850149E1,-3.0662308E0,1.3539219E0,9.284648E0,5.4660644E-2,-4.785435E-1,2.63907E-1,-3.5776284E0,2.07493E0,-9.21847E0,1.2873409E1,-9.260216E-1,9.7719785E-3,-1.5942208E-1,1.9636419E-2,2.3211174E-1,6.0140304E-2,-3.3401132E-1,2.2153748E-2,4.370973E-1,1.6374207E-1,-1.253162E-1],"categories":[],"categories_nodes":[],"categories_segments":[],"categories_sizes":[],"default_left":[0,0,0,0,0,0,0,0,0,0,0,0,0,0,0,0,0,0,0,0,0,0,0,0,0],"id":42,"left_children":[1,3,5,7,9,11,13,-1,-1,-1,15,17,19,21,23,-1,-1,-1,-1,-1,-1,-1,-1,-1,-1],"loss_changes":[2.5867542E3,6.5536365E2,1.0920437E3,6.4792847E2,7.010936E2,1.1855544E3,7.686362E2,0E0,0E0,0E0,6.6943274E2,1.1187839E3,2.8190894E2,2.7652686E2,2.3444533E2,0E0,0E0,0E0,0E0,0E0,0E0,0E0,0E0,0E0,0E0],"parents":[2147483647,0,0,1,1,2,2,3,3,4,4,5,5,6,6,10,10,11,11,12,12,13,13,14,14],"right_children":[2,4,6,8,10,12,14,-1,-1,-1,16,18,20,22,24,-1,-1,-1,-1,-1,-1,-1,-1,-1,-1],"split_conditions":[4.05E2,3.97E2,4.202857E2,-2.2252093E-1,3.7E2,4.187143E2,4.35E2,5.4660644E-2,-4.785435E-1,2.63907E-1,3.98E2,4.1557144E2,3.84E2,3.79E2,4.01E2,9.7719785E-3,-1.5942208E-1,1.9636419E-2,2.3211174E-1,6.0140304E-2,-3.3401132E-1,2.2153748E-2,4.370973E-1,1.6374207E-1,-1.253162E-1],"split_indices":[3,4,3,12,1,3,0,0,0,0,2,3,0,2,1,0,0,0,0,0,0,0,0,0,0],"split_type":[0,0,0,0,0,0,0,0,0,0,0,0,0,0,0,0,0,0,0,0,0,0,0,0,0],"sum_hessian":[2.66E2,1.04E2,1.62E2,7E0,9.7E1,1.45E2,1.7E1,2E0,5E0,2E0,9.5E1,1.38E2,7E0,1.2E1,5E0,3E1,6.5E1,1.13E2,2.5E1,1E0,6E0,2E0,1E1,1E0,4E0],"tree_param":{"num_deleted":"0","num_feature":"13","num_nodes":"25","size_leaf_vector":"1"}},{"base_weights":[2.4050279E-1,-6.475356E0,1.2846206E0,-2.065467E0,-1.2332598E1,-5.863029E0,2.0954392E0,2.569397E0,-6.2236843E0,-2.0514133E0,-1.5829648E1,-8.038548E0,2.0375903E-1,3.2220764E0,-1.9499322E0,-1.7441231E-1,1.4164284E-1,-2.7478755E-1,1.190852E-1,4.463617E-2,-1.3079552E-1,-1.06753595E-1,-5.2689075E-1,-1.2926981E-1,-4.562381E-1,6.1220605E-2,2.3939532E-1,1.05648234E-1,-2.0249271E-1],"categories":[],"categories_nodes":[],"categories_segments":[],"categories_sizes":[],"default_left":[0,0,0,0,0,0,0,0,0,0,0,0,0,0,0,0,0,0,0,0,0,0,0,0,0,0,0,0,0],"id":43,"left_children":[1,3,5,7,9,11,13,15,17,19,21,23,-1,25,27,-1,-1,-1,-1,-1,-1,-1,-1,-1,-1,-1,-1,-1,-1],"loss_changes":[1.77098E3,8.0179504E2,1.3002645E3,4.9124713E2,4.0593408E2,7.9701E2,9.212663E2,3.1687762E2,4.981176E2,7.6652245E1,2.52146E1,3.6491833E2,0E0,8.279883E2,1.2531196E3,0E0,0E0,0E0,0E0,0E0,0E0,0E0,0E0,0E0,0E0,0E0,0E0,0E0,0E0],"parents":[2147483647,0,0,1,1,2,2,3,3,4,4,5,5,6,6,7,7,8,8,9,9,10,10,11,11,13,13,14,14],"right_children":[2,4,6,8,10,12,14,16,18,20,22,24,-1,26,28,-1,-1,-1,-1,-1,-1,-1,-1,-1,-1,-1,-1,-1,-1],"split_conditions":[3.98E2,3.98E2,4.017857E2,4.0164285E2,3.99E2,4.19E2,4.27E2,3.55E2,3.88E2,3.9557144E2,3E0,4.08E2,2.0375903E-1,4.1557144E2,6.234898E-1,-1.7441231E-1,1.4164284E-1,-2.7478755E-1,1.190852E-1,4.463617E-2,-1.3079552E-1,-1.06753595E-1,-5.2689075E-1,-1.2926981E-1,-4.562381E-1,6.1220605E-2,2.3939532E-1,1.05648234E-1,-2.0249271E-1],"split_indices":[3,0,5,4,1,1,0,0,0,3,6,1,0,3,10,0,0,0,0,0,0,0,0,0,0,0,0,0,0],"split_type":[0,0,0,0,0,0,0,0,0,0,0,0,0,0,0,0,0,0,0,0,0,0,0,0,0,0,0,0,0],"sum_hessian":[2.46E2,3.1E1,2.15E2,2E1,1.1E1,2E1,1.95E2,1E1,1E1,4E0,7E0,1.8E1,2E0,1.53E2,4.2E1,1E0,9E0,8E0,2E0,2E0,2E0,2E0,5E0,1.5E1,3E0,1.26E2,2.7E1,2E1,2.2E1],"tree_param":{"num_deleted":"0","num_feature":"13","num_nodes":"29","size_leaf_vector":"1"}},{"base_weights":[4.1519782E-1,-5.684967E0,1.4690031E0,-9.791072E0,-2.490138E-1,-3.759603E-1,3.8166468E0,-4.5687366E0,-1.4165021E1,5.501757E0,-7.075235E0,5.283477E-1,-1.346048E1,5.119355E0,-2.9872723E0,-2.2848633E-1,-1.0108744E-2,-4.7087723E-1,-9.6497685E-2,-1.7310424E-1,2.430045E-1,-3.4304717E-1,4.645996E-2,-1.1430733E-2,2.036485E-1,8.061767E-2,-5.075694E-1,3.8688384E-2,2.2389893E-1,-2.1334216E-1,1.7856275E-1],"categories":[],"categories_nodes":[],"categories_segments":[],"categories_sizes":[],"default_left":[0,0,0,0,0,0,0,0,0,0,0,0,0,0,0,0,0,0,0,0,0,0,0,0,0,0,0,0,0,0,0],"id":44,"left_children":[1,3,5,7,9,11,13,15,17,19,21,23,25,27,29,-1,-1,-1,-1,-1,-1,-1,-1,-1,-1,-1,-1,-1,-1,-1,-1],"loss_changes":[1.6128649E3,8.185476E2,9.2687524E2,2.855381E2,8.626434E2,1.4648925E3,8.7905005E2,1.7284827E2,1.6146118E1,4.916829E2,4.291002E2,6.73795E2,5.831726E2,6.892612E2,7.537244E2,0E0,0E0,0E0,0E0,0E0,0E0,0E0,0E0,0E0,0E0,0E0,0E0,0E0,0E0,0E0,0E0],"parents":[2147483647,0,0,1,1,2,2,3,3,4,4,5,5,6,6,7,7,8,8,9,9,10,10,11,11,12,12,13,13,14,14],"right_children":[2,4,6,8,10,12,14,16,18,20,22,24,26,28,30,-1,-1,-1,-1,-1,-1,-1,-1,-1,-1,-1,-1,-1,-1,-1,-1],"split_conditions":[3.98E2,4E0,4.3388373E-1,3.99E2,3.9557144E2,9.807078E-15,4.31E2,3.8E2,9E0,3.55E2,3.972857E2,4.34E2,3.71E2,4.01E2,4.22E2,-2.2848633E-1,-1.0108744E-2,-4.7087723E-1,-9.6497685E-2,-1.7310424E-1,2.430045E-1,-3.4304717E-1,4.645996E-2,-1.1430733E-2,2.036485E-1,8.061767E-2,-5.075694E-1,3.8688384E-2,2.2389893E-1,-2.1334216E-1,1.7856275E-1],"split_indices":[3,6,11,0,3,11,2,0,7,0,3,2,1,2,1,0,0,0,0,0,0,0,0,0,0,0,0,0,0,0,0],"split_type":[0,0,0,0,0,0,0,0,0,0,0,0,0,0,0,0,0,0,0,0,0,0,0,0,0,0,0,0,0,0,0],"sum_hessian":[2.44E2,3.4E1,2.1E2,1.8E1,1.6E1,1.19E2,9.1E1,1.1E1,7E0,9E0,7E0,1.14E2,5E0,7.7E1,1.4E1,5E0,6E0,5E0,2E0,1E0,8E0,4E0,3E0,1.02E2,1.2E1,1E0,4E0,3.1E1,4.6E1,1E1,4E0],"tree_param":{"num_deleted":"0","num_feature":"13","num_nodes":"31","size_leaf_vector":"1"}},{"base_weights":[5.965276E-1,-6.250354E0,1.6610639E0,1.6835262E0,-1.0264408E1,9.518901E-1,7.817119E0,-1.7127281E-1,4.342903E0,2.226176E0,-1.2471922E1,1.6060517E0,-1.060687E1,1.0733059E1,2.7520074E-2,-1.6491394E-2,1.4812824E-1,-1.7180602E-1,2.1758716E-1,-4.1748998E-1,-6.430389E-2,2.587304E-2,2.3392291E-1,1.4425049E-2,-3.9693248E-1,4.0188655E-1,9.138954E-2,1.7207684E-1,-1.21850535E-1],"categories":[],"categories_nodes":[],"categories_segments":[],"categories_sizes":[],"default_left":[0,0,0,0,0,0,0,0,0,0,0,0,0,0,0,0,0,0,0,0,0,0,0,0,0,0,0,0,0],"id":45,"left_children":[1,3,5,7,9,11,13,-1,15,17,19,21,23,25,27,-1,-1,-1,-1,-1,-1,-1,-1,-1,-1,-1,-1,-1,-1],"loss_changes":[1.8387576E3,1.1346403E3,9.250366E2,3.496188E2,7.174763E2,1.5482422E3,4.988219E2,0E0,4.305876E1,3.6447604E2,2.088833E2,8.545884E2,3.3914734E2,2.0510876E2,2.7997662E2,0E0,0E0,0E0,0E0,0E0,0E0,0E0,0E0,0E0,0E0,0E0,0E0,0E0,0E0],"parents":[2147483647,0,0,1,1,2,2,3,3,4,4,5,5,6,6,8,8,9,9,10,10,11,11,12,12,13,13,14,14],"right_children":[2,4,6,8,10,12,14,-1,16,18,20,22,24,26,28,-1,-1,-1,-1,-1,-1,-1,-1,-1,-1,-1,-1,-1,-1],"split_conditions":[3.98E2,-2.2252093E-1,4.2042856E2,3E0,3.72E2,4.187143E2,4.35E2,-1.7127281E-1,3.67E2,3.55E2,1E1,4.37E2,3.97E2,5E0,4.04E2,-1.6491394E-2,1.4812824E-1,-1.7180602E-1,2.1758716E-1,-4.1748998E-1,-6.430389E-2,2.587304E-2,2.3392291E-1,1.4425049E-2,-3.9693248E-1,4.0188655E-1,9.138954E-2,1.7207684E-1,-1.21850535E-1],"split_indices":[3,12,3,7,0,3,0,0,0,0,7,1,0,6,1,0,0,0,0,0,0,0,0,0,0,0,0,0,0],"split_type":[0,0,0,0,0,0,0,0,0,0,0,0,0,0,0,0,0,0,0,0,0,0,0,0,0,0,0,0,0],"sum_hessian":[2.45E2,3.1E1,2.14E2,1.1E1,2E1,1.95E2,1.9E1,2E0,9E0,3E0,1.7E1,1.87E2,8E0,1.3E1,6E0,1E0,8E0,1E0,2E0,1.4E1,3E0,1.7E2,1.7E1,2E0,6E0,8E0,5E0,2E0,4E0],"tree_param":{"num_deleted":"0","num_feature":"13","num_nodes":"29","size_leaf_vector":"1"}},{"base_weights":[2.6575908E-1,-3.7687614E0,2.828349E0,-8.931928E0,-2.466834E0,3.2600725E-1,4.8032722E0,-1.0625278E1,-1.2334421E0,-8.35311E0,-1.0145746E0,3.2678726E0,-3.804412E0,3.6800942E0,1.3934773E1,3.1120377E-2,-3.4830767E-1,2.6536101E-2,-6.0861204E-2,3.148013E-2,-4.5748872E-1,-1.1407979E-1,5.340196E-2,-1.6112028E-1,1.8345077E-1,2.923648E-1,-1.8401855E-1,7.404065E-2,2.556047E-1,9.10144E-3,5.309831E-1],"categories":[],"categories_nodes":[],"categories_segments":[],"categories_sizes":[],"default_left":[0,0,0,0,0,0,0,0,0,0,0,0,0,0,0,0,0,0,0,0,0,0,0,0,0,0,0,0,0,0,0],"id":46,"left_children":[1,3,5,7,9,11,13,15,17,19,21,23,25,27,29,-1,-1,-1,-1,-1,-1,-1,-1,-1,-1,-1,-1,-1,-1,-1,-1],"loss_changes":[2.7924436E3,6.3971643E2,8.107212E2,2.2140771E2,7.2683453E2,9.6078345E2,7.897361E2,2.199303E2,1.7173874E1,1.150356E3,5.968923E2,1.229908E3,1.2209817E3,4.4143567E2,4.457494E2,0E0,0E0,0E0,0E0,0E0,0E0,0E0,0E0,0E0,0E0,0E0,0E0,0E0,0E0,0E0,0E0],"parents":[2147483647,0,0,1,1,2,2,3,3,4,4,5,5,6,6,7,7,8,8,9,9,10,10,11,11,12,12,13,13,14,14],"right_children":[2,4,6,8,10,12,14,16,18,20,22,24,26,28,30,-1,-1,-1,-1,-1,-1,-1,-1,-1,-1,-1,-1,-1,-1,-1,-1],"split_conditions":[4.05E2,3.9442856E2,4.087143E2,9.749279E-1,1E0,4.0685715E2,9E0,3.88E2,4.0364285E2,4E2,4.06E2,-4.3388373E-1,3.8E2,9.749279E-1,4.04E2,3.1120377E-2,-3.4830767E-1,2.6536101E-2,-6.0861204E-2,3.148013E-2,-4.5748872E-1,-1.1407979E-1,5.340196E-2,-1.6112028E-1,1.8345077E-1,2.923648E-1,-1.8401855E-1,7.404065E-2,2.556047E-1,9.10144E-3,5.309831E-1],"split_indices":[3,3,5,9,6,5,7,1,5,3,5,11,1,9,1,0,0,0,0,0,0,0,0,0,0,0,0,0,0,0,0],"split_type":[0,0,0,0,0,0,0,0,0,0,0,0,0,0,0,0,0,0,0,0,0,0,0,0,0,0,0,0,0,0,0],"sum_hessian":[2.64E2,1.02E2,1.62E2,1.7E1,8.5E1,7.3E1,8.9E1,1.3E1,4E0,1.4E1,7.1E1,4.3E1,3E1,8.3E1,6E0,1E0,1.2E1,1E0,3E0,7E0,7E0,3.5E1,3.6E1,1E1,3.3E1,3E0,2.7E1,7E1,1.3E1,2E0,4E0],"tree_param":{"num_deleted":"0","num_feature":"13","num_nodes":"31","size_leaf_vector":"1"}},{"base_weights":[6.790387E-1,-3.6906114E0,2.8899755E0,-9.686659E-1,-6.602599E0,-8.085251E0,3.3609989E0,-9.41543E0,1.3684171E0,-3.0723724E0,-1.3768712E1,-1.1286392E-2,-2.7075922E-1,2.1472661E0,9.742085E0,-2.9950973E-1,-2.7998656E-2,-1.3861473E-1,7.755753E-2,1.8894024E-1,-1.652222E-1,-1.0062515E-1,-4.7660467E-1,3.8228326E-2,2.5486448E-1,-1.7181905E-2,3.8767317E-1],"categories":[],"categories_nodes":[],"categories_segments":[],"categories_sizes":[],"default_left":[0,0,0,0,0,0,0,0,0,0,0,0,0,0,0,0,0,0,0,0,0,0,0,0,0,0,0],"id":47,"left_children":[1,3,5,7,9,11,13,15,17,19,21,-1,-1,23,25,-1,-1,-1,-1,-1,-1,-1,-1,-1,-1,-1,-1],"loss_changes":[2.5245408E3,6.783248E2,9.758617E2,1.00595135E3,9.356085E2,4.7789124E1,1.2383923E3,2.506482E1,3.3462314E2,8.342074E2,1.2690747E2,0E0,0E0,7.711017E2,8.7512744E2,0E0,0E0,0E0,0E0,0E0,0E0,0E0,0E0,0E0,0E0,0E0,0E0],"parents":[2147483647,0,0,1,1,2,2,3,3,4,4,5,5,6,6,7,7,8,8,9,9,10,10,13,13,14,14],"right_children":[2,4,6,8,10,12,14,16,18,20,22,-1,-1,24,26,-1,-1,-1,-1,-1,-1,-1,-1,-1,-1,-1,-1],"split_conditions":[4.0357144E2,6.234898E-1,4.0042856E2,4.0175E2,3.431487E-15,3.81E2,1E1,4.032143E2,3.82E2,4.019643E2,3.91E2,-1.1286392E-2,-2.7075922E-1,4.2042856E2,3.92E2,-2.9950973E-1,-2.7998656E-2,-1.3861473E-1,7.755753E-2,1.8894024E-1,-1.652222E-1,-1.0062515E-1,-4.7660467E-1,3.8228326E-2,2.5486448E-1,-1.7181905E-2,3.8767317E-1],"split_indices":[3,12,4,5,9,0,7,4,1,5,1,0,0,3,1,0,0,0,0,0,0,0,0,0,0,0,0],"split_type":[0,0,0,0,0,0,0,0,0,0,0,0,0,0,0,0,0,0,0,0,0,0,0,0,0,0,0],"sum_hessian":[2.55E2,8.5E1,1.7E2,4.6E1,3.9E1,5E0,1.65E2,8E0,3.8E1,2.9E1,1E1,1E0,4E0,1.42E2,2.3E1,7E0,1E0,5E0,3.3E1,5E0,2.4E1,3E0,7E0,1.28E2,1.4E1,6E0,1.7E1],"tree_param":{"num_deleted":"0","num_feature":"13","num_nodes":"27","size_leaf_vector":"1"}},{"base_weights":[-7.308701E-2,-3.3256834E0,1.6301277E0,-4.683566E-1,-7.198734E0,4.5682154E0,2.7849862E-1,3.4880905E0,-3.2198172E0,-5.0337877E0,-3.5251334E-1,1.5060432E0,1.1558491E1,-1.5088346E0,3.8763807E0,-4.584451E-2,2.4255756E-1,-2.7830282E-1,-8.572399E-3,-1.8066774E-1,1.8465248E-1,2.7275127E-1,-7.720124E-2,1.1309131E-1,4.2212227E-1,-7.352311E-2,1.830758E-1,4.0918916E-2,3.7064287E-1],"categories":[],"categories_nodes":[],"categories_segments":[],"categories_sizes":[],"default_left":[0,0,0,0,0,0,0,0,0,0,0,0,0,0,0,0,0,0,0,0,0,0,0,0,0,0,0,0,0],"id":48,"left_children":[1,3,5,7,9,11,13,15,17,19,-1,21,23,25,27,-1,-1,-1,-1,-1,-1,-1,-1,-1,-1,-1,-1,-1,-1],"loss_changes":[1.45109E3,9.858767E2,6.7923035E2,6.3242346E2,1.9701208E2,1.1036704E3,7.9565076E2,5.905177E2,5.9627856E2,4.5405847E2,0E0,1.3389382E3,1.539502E2,6.3992896E2,8.227961E2,0E0,0E0,0E0,0E0,0E0,0E0,0E0,0E0,0E0,0E0,0E0,0E0,0E0,0E0],"parents":[2147483647,0,0,1,1,2,2,3,3,4,4,5,5,6,6,7,7,8,8,9,9,11,11,12,12,13,13,14,14],"right_children":[2,4,6,8,10,12,14,16,18,20,-1,22,24,26,28,-1,-1,-1,-1,-1,-1,-1,-1,-1,-1,-1,-1,-1,-1],"split_conditions":[4.0385715E2,6.234898E-1,4.0685715E2,4.0264285E2,4.0814285E2,4.057857E2,4.1585715E2,3.9985715E2,4.0385715E2,4.08E2,-3.5251334E-1,2E0,4E2,4.34E2,8E0,-4.584451E-2,2.4255756E-1,-2.7830282E-1,-8.572399E-3,-1.8066774E-1,1.8465248E-1,2.7275127E-1,-7.720124E-2,1.1309131E-1,4.2212227E-1,-7.352311E-2,1.830758E-1,4.0918916E-2,3.7064287E-1],"split_indices":[3,12,4,4,4,4,3,4,4,4,0,6,2,2,7,0,0,0,0,0,0,0,0,0,0,0,0,0,0],"split_type":[0,0,0,0,0,0,0,0,0,0,0,0,0,0,0,0,0,0,0,0,0,0,0,0,0,0,0,0,0],"sum_hessian":[2.56E2,8.7E1,1.69E2,5.2E1,3.5E1,5.1E1,1.18E2,2.1E1,3.1E1,2.8E1,7E0,3.8E1,1.3E1,8E1,3.8E1,1.1E1,1E1,8E0,2.3E1,2.7E1,1E0,1.2E1,2.6E1,5E0,8E0,7.3E1,7E0,3.2E1,6E0],"tree_param":{"num_deleted":"0","num_feature":"13","num_nodes":"29","size_leaf_vector":"1"}},{"base_weights":[-1.3578683E-1,-4.4728093E0,2.1812048E0,8.5505956E-1,-6.3099084E0,5.818703E0,7.428955E-1,-2.3457785E0,4.8434496E0,-7.3817263E0,2.442697E0,-1.6170393E-1,1.1818515E1,-1.4970866E0,5.274025E0,1.0830536E-1,-1.3186994E-1,-1.5693489E-1,2.0972374E-1,-8.429737E-2,-3.0863923E-1,2.504072E-1,-1.7000686E-1,3.475549E-1,-1.9794676E-1,4.2518216E-1,-8.168701E-2,-8.584862E-2,1.957077E-1,2.5257528E-1,-2.0164996E-2],"categories":[],"categories_nodes":[],"categories_segments":[],"categories_sizes":[],"default_left":[0,0,0,0,0,0,0,0,0,0,0,0,0,0,0,0,0,0,0,0,0,0,0,0,0,0,0,0,0,0,0],"id":49,"left_children":[1,3,5,7,9,11,13,15,17,19,21,23,25,27,29,-1,-1,-1,-1,-1,-1,-1,-1,-1,-1,-1,-1,-1,-1,-1,-1],"loss_changes":[2.7424565E3,9.460292E2,9.183008E2,3.7877213E2,7.201592E2,1.7997992E3,1.3532909E3,2.5516101E2,3.909472E2,7.6363184E2,6.2071045E2,2.3463755E3,9.716172E2,1.0410082E3,8.398507E2,0E0,0E0,0E0,0E0,0E0,0E0,0E0,0E0,0E0,0E0,0E0,0E0,0E0,0E0,0E0,0E0],"parents":[2147483647,0,0,1,1,2,2,3,3,4,4,5,5,6,6,7,7,8,8,9,9,10,10,11,11,12,12,13,13,14,14],"right_children":[2,4,6,8,10,12,14,16,18,20,22,24,26,28,30,-1,-1,-1,-1,-1,-1,-1,-1,-1,-1,-1,-1,-1,-1,-1,-1],"split_conditions":[4.0385715E2,-2.2252093E-1,4.0685715E2,4.0539285E2,4.37E2,4.01E2,4.162857E2,3.9685715E2,3.937143E2,3.99E2,4.0535715E2,2E0,4.31E2,4.1317856E2,6.234898E-1,1.0830536E-1,-1.3186994E-1,-1.5693489E-1,2.0972374E-1,-8.429737E-2,-3.0863923E-1,2.504072E-1,-1.7000686E-1,3.475549E-1,-1.9794676E-1,4.2518216E-1,-8.168701E-2,-8.584862E-2,1.957077E-1,2.5257528E-1,-2.0164996E-2],"split_indices":[3,12,4,5,1,1,3,4,3,1,5,6,1,5,10,0,0,0,0,0,0,0,0,0,0,0,0,0,0,0,0],"split_type":[0,0,0,0,0,0,0,0,0,0,0,0,0,0,0,0,0,0,0,0,0,0,0,0,0,0,0,0,0,0,0],"sum_hessian":[2.67E2,9.2E1,1.75E2,2.4E1,6.8E1,4.7E1,1.28E2,1.4E1,1E1,6.1E1,7E0,2.5E1,2.2E1,8.7E1,4.1E1,3E0,1.1E1,1E0,9E0,2.6E1,3.5E1,4E0,3E0,8E0,1.7E1,1.9E1,3E0,7.6E1,1.1E1,2.6E1,1.5E1],"tree_param":{"num_deleted":"0","num_feature":"13","num_nodes":"31","size_leaf_vector":"1"}},{"base_weights":[-1.2193925E0,-1.0590269E1,-6.6898257E-1,-1.4265113E1,-2.4847183E0,-1.9195211E0,2.1342516E0,-3.0000228E-2,-4.6644744E-1,3.7877147E0,-2.556242E-1,1.7576338E0,-3.2746391E0,-7.021827E0,5.2846737E0,-3.251747E-2,1.6237171E-1,-2.6993336E-2,2.7359533E-1,-2.161271E-1,-9.430298E-3,1.1653404E-1,-3.3475146E-1,2.0116375E-1,-1.1066427E-1],"categories":[],"categories_nodes":[],"categories_segments":[],"categories_sizes":[],"default_left":[0,0,0,0,0,0,0,0,0,0,0,0,0,0,0,0,0,0,0,0,0,0,0,0,0],"id":50,"left_children":[1,3,5,7,9,11,13,-1,-1,15,-1,17,19,21,23,-1,-1,-1,-1,-1,-1,-1,-1,-1,-1],"loss_changes":[1.2991487E3,3.1067847E2,8.711505E2,1.0654346E2,3.9971085E2,8.693562E2,2.3324287E3,0E0,0E0,6.508864E1,0E0,9.6370984E2,1.4589353E3,1.0774375E3,8.2641943E2,0E0,0E0,0E0,0E0,0E0,0E0,0E0,0E0,0E0,0E0],"parents":[2147483647,0,0,1,1,2,2,3,3,4,4,5,5,6,6,9,9,11,11,12,12,13,13,14,14],"right_children":[2,4,6,8,10,12,14,-1,-1,16,-1,18,20,22,24,-1,-1,-1,-1,-1,-1,-1,-1,-1,-1],"split_conditions":[3.977857E2,4.0235715E2,4.1107144E2,4.002143E2,4.16E2,4.0425E2,2E0,-3.0000228E-2,-4.6644744E-1,3.71E2,-2.556242E-1,4.057857E2,-7.83774E-15,3.85E2,4.1492856E2,-3.251747E-2,1.6237171E-1,-2.6993336E-2,2.7359533E-1,-2.161271E-1,-9.430298E-3,1.1653404E-1,-3.3475146E-1,2.0116375E-1,-1.1066427E-1],"split_indices":[4,5,4,5,2,5,6,0,0,0,0,4,9,2,5,0,0,0,0,0,0,0,0,0,0],"split_type":[0,0,0,0,0,0,0,0,0,0,0,0,0,0,0,0,0,0,0,0,0,0,0,0,0],"sum_hessian":[2.53E2,1.1E1,2.42E2,6E0,5E0,1.68E2,7.4E1,1E0,5E0,3E0,2E0,4.5E1,1.23E2,1.8E1,5.6E1,1E0,2E0,3.5E1,1E1,5.1E1,7.2E1,5E0,1.3E1,4.9E1,7E0],"tree_param":{"num_deleted":"0","num_feature":"13","num_nodes":"25","size_leaf_vector":"1"}},{"base_weights":[3.5745716E-1,-2.782721E0,3.218826E0,-9.7641027E-1,-6.9362063E0,2.1034412E0,9.931239E0,-3.4824874E0,8.567841E0,-8.0318874E-1,-1.0831237E1,2.9140413E0,-6.9446797E0,1.1001324E1,-6.997719E-2,-6.854535E-2,-2.9482344E-1,8.2763106E-2,4.064784E-1,1.3551643E-1,-1.9244027E-1,-3.530425E-1,-1.1932068E-2,5.429271E-2,2.9741955E-1,-2.9587573E-1,7.422748E-2,-1.3643875E-2,3.5266414E-1],"categories":[],"categories_nodes":[],"categories_segments":[],"categories_sizes":[],"default_left":[0,0,0,0,0,0,0,0,0,0,0,0,0,0,0,0,0,0,0,0,0,0,0,0,0,0,0,0,0],"id":51,"left_children":[1,3,5,7,9,11,13,15,17,19,21,23,25,27,-1,-1,-1,-1,-1,-1,-1,-1,-1,-1,-1,-1,-1,-1,-1],"loss_changes":[2.389981E3,9.3249786E2,9.7801306E2,2.2900261E3,8.816565E2,9.6284344E2,3.263274E2,5.025619E2,4.6661255E2,6.243262E2,2.1077393E2,8.3511597E2,3.755197E2,1.7155176E2,0E0,0E0,0E0,0E0,0E0,0E0,0E0,0E0,0E0,0E0,0E0,0E0,0E0,0E0,0E0],"parents":[2147483647,0,0,1,1,2,2,3,3,4,4,5,5,6,6,7,7,8,8,9,9,10,10,11,11,12,12,13,13],"right_children":[2,4,6,8,10,12,14,16,18,20,22,24,26,28,-1,-1,-1,-1,-1,-1,-1,-1,-1,-1,-1,-1,-1,-1,-1],"split_conditions":[4.0714285E2,4.0792856E2,4.2042856E2,4.19E2,4E2,4.1614285E2,4.207857E2,4.0764285E2,3.9942856E2,4.19E2,4.1317856E2,4.1335715E2,4.1835715E2,4.077143E2,-6.997719E-2,-6.854535E-2,-2.9482344E-1,8.2763106E-2,4.064784E-1,1.3551643E-1,-1.9244027E-1,-3.530425E-1,-1.1932068E-2,5.429271E-2,2.9741955E-1,-2.9587573E-1,7.422748E-2,-1.3643875E-2,3.5266414E-1],"split_indices":[3,4,3,1,0,4,4,5,3,1,5,4,4,4,0,0,0,0,0,0,0,0,0,0,0,0,0,0,0],"split_type":[0,0,0,0,0,0,0,0,0,0,0,0,0,0,0,0,0,0,0,0,0,0,0,0,0,0,0,0,0],"sum_hessian":[2.6E2,1.24E2,1.36E2,8.9E1,3.5E1,1.2E2,1.6E1,7.2E1,1.7E1,1.5E1,2E1,1.12E2,8E0,1.5E1,1E0,6.4E1,8E0,1E1,7E0,8E0,7E0,1.8E1,2E0,1E2,1.2E1,6E0,2E0,1E0,1.4E1],"tree_param":{"num_deleted":"0","num_feature":"13","num_nodes":"29","size_leaf_vector":"1"}},{"base_weights":[4.3377495E-1,-8.265298E0,9.235542E-1,9.3055344E-1,-1.3684289E1,1.7054291E-1,5.943329E0,1.10507354E-1,-8.794226E-2,-4.4596502E-1,-3.1759415E-2,1.8970885E0,-1.6575999E0,1.1854728E1,2.4910214E0,8.248227E-2,-2.3119912E-1,-3.44151E-1,-1.2153915E-2,-3.068161E-2,4.0347868E-1,-9.1195256E-2,2.1279098E-1],"categories":[],"categories_nodes":[],"categories_segments":[],"categories_sizes":[],"default_left":[0,0,0,0,0,0,0,0,0,0,0,0,0,0,0,0,0,0,0,0,0,0,0],"id":52,"left_children":[1,3,5,7,9,11,13,-1,-1,-1,-1,15,17,19,21,-1,-1,-1,-1,-1,-1,-1,-1],"loss_changes":[1.1178811E3,7.358533E2,9.268262E2,1.1745084E2,8.701013E1,6.943666E2,5.6446387E2,0E0,0E0,0E0,0E0,9.8852234E2,1.3012865E3,2.671372E2,6.755594E2,0E0,0E0,0E0,0E0,0E0,0E0,0E0,0E0],"parents":[2147483647,0,0,1,1,2,2,3,3,4,4,5,5,6,6,11,11,12,12,13,13,14,14],"right_children":[2,4,6,8,10,12,14,-1,-1,-1,-1,16,18,20,22,-1,-1,-1,-1,-1,-1,-1,-1],"split_conditions":[3.9814285E2,-2.2252093E-1,4.132143E2,3.96E2,4.0382144E2,-1.2246468E-15,4.1360715E2,1.10507354E-1,-8.794226E-2,-4.4596502E-1,-3.1759415E-2,4.1216E2,1E0,-7.818315E-1,4.22E2,8.248227E-2,-2.3119912E-1,-3.44151E-1,-1.2153915E-2,-3.068161E-2,4.0347868E-1,-9.1195256E-2,2.1279098E-1],"split_indices":[4,12,5,0,5,9,5,0,0,0,0,5,6,9,0,0,0,0,0,0,0,0,0],"split_type":[0,0,0,0,0,0,0,0,0,0,0,0,0,0,0,0,0,0,0,0,0,0,0],"sum_hessian":[2.54E2,1.1E1,2.43E2,5E0,6E0,2.14E2,2.9E1,3E0,2E0,5E0,1E0,1.1E2,1.04E2,8E0,2.1E1,1.03E2,7E0,9E0,9.5E1,1E0,7E0,1E1,1.1E1],"tree_param":{"num_deleted":"0","num_feature":"13","num_nodes":"23","size_leaf_vector":"1"}},{"base_weights":[1.8995906E-1,-1.0110865E0,4.960727E0,-1.6273814E0,8.009789E0,8.279291E0,-3.5278716E0,3.3517663E0,-2.600215E0,-1.5765724E-1,1.0242925E1,1.1340741E1,-1.4441553E0,-7.7810364E0,2.8463984E0,2.0542825E-2,3.5288244E-1,-3.027641E-2,-1.5297714E-1,-3.0451583E-2,3.4304556E-1,-3.386371E-2,3.705709E-1,-3.013716E-1,1.9871314E-1,-2.7184698E-1,3.768196E-2,2.1579467E-1,-8.770675E-2],"categories":[],"categories_nodes":[],"categories_segments":[],"categories_sizes":[],"default_left":[0,0,0,0,0,0,0,0,0,0,0,0,0,0,0,0,0,0,0,0,0,0,0,0,0,0,0,0,0],"id":53,"left_children":[1,3,5,7,9,11,13,15,17,-1,19,21,23,25,27,-1,-1,-1,-1,-1,-1,-1,-1,-1,-1,-1,-1,-1,-1],"loss_changes":[1.5105536E3,1.2121638E3,1.5806324E3,9.9492236E2,